svm_type c_svc
kernel_type rbf
gamma 0.0078125
nr_class 12
total_sv 544
rho -0.138107 -0.0835765 0.0930133 -0.107776 -0.209588 0.205217 0.0372351 0.330374 0.277584 -0.208389 -0.245262 0.162682 0.293456 0.0992244 0.03318 0.308455 0.113021 0.625656 0.555912 -0.0773331 -0.0788775 0.25636 -0.026243 -0.125603 0.317404 0.101513 0.470453 0.490512 -0.134741 -0.0281104 -0.171121 -0.259378 0.00648613 -0.129233 0.198063 0.16831 -0.243211 -0.274118 -0.102198 0.190694 0.0916747 0.469474 0.417811 -0.121264 -0.143052 0.242307 0.138908 0.417114 0.429901 -0.108788 -0.0855841 -0.212647 0.227164 0.134024 -0.358181 -0.34292 0.266717 0.264116 -0.193715 -0.192721 0.224555 -0.489971 -0.484111 -0.513913 -0.397153 0.0149284
label 66 68 48 52 50 56 51 53 55 49 57 54
probA -4.70935 -4.86141 -4.69174 -4.66853 -4.60017 -4.50053 -4.37536 -4.65867 -4.50627 -4.42478 -4.49409 -4.20926 -4.7614 -4.72741 -4.57098 -4.57146 -4.47286 -4.69439 -4.50744 -4.45397 -4.44856 -4.76959 -4.8398 -4.86205 -4.67366 -4.53462 -4.86109 -4.56149 -4.47292 -4.57107 -4.58723 -4.42328 -4.43716 -4.37771 -4.49159 -4.36882 -4.31617 -4.35207 -4.3515 -4.36575 -4.26337 -4.21966 -4.24007 -4.22681 -4.29996 -4.07198 -4.01034 -4.35718 -4.09746 -4.04699 -3.84256 -4.17692 -4.29018 -4.23348 -4.11513 -4.18938 -4.20293 -4.01258 -3.95757 -3.90118 -3.8378 -4.19039 -4.2042 -4.00676 -4.06573 -4.02202
probB 0.100233 0.0187122 -0.121241 0.0116965 -0.0573257 0.0577846 0.0372804 -0.154676 -0.335456 -0.300685 -0.128099 0.305315 -0.0687887 0.00602026 -0.454986 -0.0237796 -0.251883 -0.118511 -0.229981 -0.395367 -0.40707 -0.0989074 -0.0262499 0.0141182 0.0139053 -0.0860853 0.191186 -0.279214 -0.414963 -0.382866 -0.00680582 -0.265912 0.0077385 -0.185615 -0.0849928 -0.29243 -0.374776 -0.289102 -0.283511 0.15295 -0.163756 -0.334517 -0.236305 -0.321083 -0.216664 0.368142 0.0550205 0.21619 -0.0502906 -0.0179159 -0.253015 -0.0407807 -0.363123 -0.222295 -0.28024 -0.366631 -0.0155858 0.0105982 -0.156129 -0.303746 -0.742422 -0.349113 -0.142649 -0.0340137 -0.0215217 0.0614987
nr_sv 45 68 94 33 39 52 37 38 40 28 27 43
SV
1 1 1 1 1 1 1 1 1 1 1 1:0.0222463 2:0.140241 3:0.73486 4:0.109617 5:-0.223982 6:0.648553 7:-0.208028 8:-0.11557 9:0.416379 10:-0.266085 11:-0.129212 12:0.410368 13:0.248949 14:-0.383073 15:-0.361216 16:-0.115509 17:-0.0699807 18:0.413338 19:0.146373 20:-0.52831 21:0.350295 22:0.161241 23:-0.825944 24:-0.0395702 25:-0.788366 26:-0.532234 27:-0.26117 28:0.43379 29:0.232927 30:0.116218 31:-0.441257 32:0.392646 33:-0.0253634 34:0.20012 35:-0.329622 36:0.773341 37:0.133791 38:-0.336318 39:0.257501 40:-0.0494255 41:0.141469 42:-0.122401 43:-0.160038 44:0.485419 45:0.0348549 46:-0.256794 47:-0.00126502 48:-0.371233 49:0.0665808 50:-0.216202 51:-0.636618 52:0.112785 53:-0.189496 54:0.207493 55:0.272162 56:0.181204 57:-0.389148 58:-0.760483 59:-0.148833 60:0.555375 61:-0.0858718 62:-0.254294 63:-0.145904 64:-0.0957999 65:0.110252 66:-0.230769 67:0.102847 68:-0.30243 69:0.204743 70:-0.381388 71:0.404323 72:0.0413007 73:-0.267922 74:0.0493349 75:-0.47632 76:-0.210269 77:-0.468946 78:-0.296751 79:0.419339 80:-0.0220496 81:0.323306 82:-0.223005 83:0.215605 84:-0.206266 85:0.19806 86:0.286477 87:0.481131 88:-0.505429 89:-0.783709 90:0.0752814 91:0.38197 92:-0.420294 93:-0.292498 94:0.313441 95:0.551724 96:0.302969 97:0.190104 98:-0.718691 99:0.16766 100:-0.026312 101:0.0604479 102:0.324853 103:-0.268576 104:-0.113392 105:0.109373 106:-0.215114 107:0.0516518 108:-0.21841 109:0.34721 110:0.369429 111:0.743886 112:-0.000674309 113:-0.109877 114:0.435234 115:-0.147095 116:-0.507999 117:-0.88186 118:0.511809 119:0.0254948 120:0.179582 121:0.0339436 122:0.0671779 123:0.429921 124:-0.129436 125:-0.28435 126:0.00198098 127:-0.327831 128:-0.279202 
0.8869256556590385 1 0 0 1 0.2493971593321928 1 0 0 0.115384351914126 1 1:-0.495638 2:0.0612835 3:0.377263 4:-0.15246 5:-0.260133 6:0.126881 7:-0.697733 8:-0.0228884 9:0.331188 10:-0.280423 11:0.361715 12:0.534233 13:0.301864 14:-0.256819 15:-0.192009 16:0.701441 17:-0.0749335 18:0.137212 19:0.270679 20:0.163806 21:-0.618933 22:-0.0459016 23:-0.900952 24:0.353097 25:-0.180143 26:0.0726381 27:0.0131958 28:-0.192058 29:0.0955793 30:-0.0981903 31:-0.399125 32:-0.0185416 33:-0.228271 34:0.370004 35:-0.0755297 36:0.0990917 37:0.165879 38:-0.0922086 39:-0.504513 40:-0.142767 41:-0.418149 42:-0.136325 43:0.197834 44:0.459498 45:0.107396 46:-0.0652062 47:-0.0602994 48:0.0438024 49:0.0517612 50:-0.0938274 51:-0.124389 52:-0.0344896 53:-0.440731 54:-0.219583 55:-0.388683 56:0.246491 57:-0.195913 58:-0.807531 59:0.232977 60:-0.0411765 61:0.561682 62:-0.556304 63:0.0421111 64:0.302737 65:0.584186 66:0.350336 67:-0.228443 68:-0.399636 69:-0.396782 70:-0.431732 71:0.00490651 72:-0.420366 73:0.0689655 74:-0.380329 75:-0.0835596 76:-0.0559509 77:0.178207 78:0.0301867 79:0.349016 80:-0.714357 81:-0.659866 82:0.0483451 83:-0.0270481 84:-0.323154 85:-0.175532 86:-0.156311 87:-0.177912 88:-0.391757 89:-0.11604 90:-0.130394 91:-0.102824 92:-0.149539 93:-0.450333 94:0.692034 95:0.437767 96:-0.186837 97:0.482515 98:-0.106788 99:0.57476 100:-0.148239 101:-0.205927 102:0.518311 103:0.0681406 104:-0.145357 105:0.378573 106:-0.420617 107:-0.0332984 108:-0.305011 109:-0.0325883 110:-0.00721908 111:-0.00849185 112:-0.608227 113:-0.14784 114:0.0781277 115:-0.0654206 116:-0.102846 117:0.326868 118:0.170603 119:0.228782 120:0.313483 121:-0.417404 122:0.559509 123:0.100787 124:-0.341538 125:-0.0900073 126:-0.253962 127:0.172604 128:0.112502 
0.8577519986807545 0 0 0 0 0 0 0 0 0 0 1:-0.786343 2:-0.0733107 3:0.153162 4:-0.223954 5:-0.333446 6:0.273955 7:-0.358641 8:0.447505 9:0.116525 10:-0.361949 11:0.326421 12:0.659025 13:0.584262 14:-0.132332 15:-0.17759 16:0.522765 17:0.109328 18:0.607789 19:0.251155 20:-0.204422 21:-0.61211 22:-0.0566745 23:-0.23087 24:0.0599241 25:0.107123 26:0.178847 27:0.0795097 28:-0.544348 29:0.028811 30:-0.313012 31:-0.0444012 32:-0.232939 33:-0.360501 34:0.560245 35:0.0394682 36:-0.0786351 37:-0.101524 38:-0.237198 39:-0.0704935 40:-0.0722493 41:-0.450428 42:-0.370966 43:0.150787 44:0.286958 45:0.0893489 46:-0.0765733 47:0.189964 48:-0.0995133 49:-0.118986 50:0.19121 51:0.161251 52:0.226957 53:-0.250247 54:-0.309153 55:-0.0218926 56:0.365838 57:-0.40006 58:-0.372757 59:0.321012 60:0.245639 61:0.461888 62:-0.521724 63:0.284882 64:0.604059 65:0.428037 66:0.116159 67:-0.537665 68:-0.370731 69:-0.504976 70:0.0508518 71:-0.217345 72:-0.183954 73:0.082804 74:-0.264481 75:0.233183 76:0.119576 77:0.217808 78:0.182655 79:-0.00606661 80:-0.573791 81:-0.164855 82:-0.0782592 83:0.137841 84:-0.177307 85:0.0300375 86:0.0247399 87:0.0194413 88:-0.183692 89:-0.194737 90:-0.107645 91:0.0546705 92:-0.336365 93:-0.36591 94:0.599234 95:0.297209 96:-0.278884 97:0.479911 98:-0.368497 99:0.467997 100:0.0504673 101:-0.00117865 102:-0.0226447 103:0.100761 104:0.00302826 105:0.460961 106:-0.130262 107:0.334033 108:0.0509259 109:-0.00631292 110:-0.0486503 111:0.101563 112:-0.371207 113:0.0290123 114:0.0645106 115:-0.298253 116:-0.188863 117:0.243994 118:0.134223 119:-0.536733 120:0.0615868 121:-0.309607 122:0.391411 123:0.242913 124:-0.402256 125:-0.131154 126:-0.200872 127:-0.256299 128:0.288985 
0.6700055344034069 1 0 1 1 0 1 0.5230812680235092 0.6904924929153105 1 0.3562114783900722 1:-0.36504 2:0.0146438 3:0.423517 4:-0.355875 5:-0.0211511 6:0.558328 7:-0.553939 8:-0.105343 9:-0.176435 10:-0.128125 11:0.0705882 12:0.462558 13:0.241455 14:-0.387333 15:-0.0829099 16:0.444182 17:0.356691 18:0.1841 19:0.142531 20:0.0668606 21:-0.732073 22:0.0247073 23:-0.547586 24:-0.356131 25:-0.544417 26:-0.0475342 27:-0.455556 28:-0.146811 29:-0.0842988 30:-0.633937 31:-0.39637 32:0.26971 33:0.123105 34:0.596917 35:-0.319319 36:0.196956 37:-0.111864 38:-0.381872 39:0.00512237 40:-0.439792 41:-0.629282 42:-0.549722 43:-0.134428 44:0.2258 45:0.389774 46:0.0577658 47:0.0293063 48:0.0653412 49:-0.223153 50:-0.0837014 51:-0.150419 52:-0.342319 53:-0.638459 54:0.239847 55:-0.0733341 56:0.513879 57:-0.0219224 58:-0.256346 59:0.146401 60:-0.059432 61:-0.0580289 62:-0.398451 63:0.380319 64:0.316423 65:-0.102769 66:-0.15746 67:-0.45675 68:0.0431431 69:-0.372009 70:-0.0106789 71:-0.28471 72:-0.419416 73:-0.599138 74:-0.57704 75:0.629261 76:-0.455281 77:0.0153733 78:0.72218 79:0.473319 80:-0.511651 81:-0.0457185 82:0.0605037 83:0.063459 84:-0.252863 85:-0.0125156 86:-0.14844 87:0.0308773 88:-0.458897 89:-0.316541 90:-0.0368199 91:0.152064 92:-1 93:-0.201652 94:0.969614 95:-0.147455 96:0.0113271 97:0.539435 98:-0.239083 99:0.330396 100:0.099353 101:-0.499242 102:0.435561 103:0.0213846 104:-0.211306 105:0.848316 106:0.106729 107:0.0377556 108:-0.174837 109:-0.05511 110:0.146579 111:0.0896739 112:-0.437964 113:-0.00123457 114:0.154723 115:0.341731 116:-0.228755 117:-0.0976416 118:0.0611706 119:-0.447501 120:0.0149806 121:-0.690599 122:0.311963 123:-0.151969 124:-0.514667 125:-0.475018 126:-0.0863708 127:0.0443093 128:-0.239679 
0 0 0 0 1 0 0 0 0 0 0 1:-0.679661 2:0.00257069 3:0.161886 4:-0.152799 5:-0.354765 6:0.283215 7:-0.433981 8:0.418022 9:0.169846 10:-0.451654 11:0.292622 12:0.710055 13:0.553098 14:-0.150725 15:-0.163952 16:0.574245 17:0.034119 18:0.483103 19:0.262786 20:-0.210125 21:-0.536493 22:0.0216628 23:-0.254384 24:0.240961 25:-0.114824 26:0.290701 27:-0.0265925 28:-0.402795 29:-0.017378 30:-0.286314 31:-0.120564 32:0.0266438 33:-0.342097 34:0.532405 35:-0.0271708 36:0.104983 37:-0.03913 38:-0.23547 39:-0.191967 40:-0.0313238 41:-0.529315 42:-0.419136 43:0.0420263 44:0.530579 45:0.175513 46:-0.0263511 47:0.168037 48:-0.201823 49:-0.179983 50:-0.114295 51:0.287561 52:-0.0120912 53:-0.0969707 54:-0.123712 55:-0.0491686 56:0.203036 57:-0.403234 58:-0.454021 59:0.436284 60:0.0732252 61:0.324879 62:-0.460873 63:0.328422 64:0.361491 65:0.484909 66:0.0143521 67:-0.0756028 68:-0.153838 69:-0.521914 70:-0.261632 71:-0.234584 72:-0.25991 73:0.0235935 74:-0.295904 75:0.129713 76:-0.211386 77:0.0839995 78:0.166283 79:0.349263 80:-0.40441 81:-0.429635 82:-0.190582 83:-0.0208062 84:-0.346058 85:0.183667 86:0.241496 87:0.143604 88:-0.37248 89:-0.037594 90:0.054878 91:-0.00651702 92:-0.441081 93:-0.129387 94:0.29291 95:-0.00821018 96:-0.427686 97:0.542039 98:-0.351492 99:0.642135 100:-0.196549 101:-0.0264354 102:0.0693318 103:-0.253353 104:-0.0242261 105:0.575283 106:-0.169705 107:0.128736 108:0.083878 109:-0.124723 110:-0.0677966 111:0.0390625 112:-0.450775 113:-0.0453704 114:0.122723 115:-0.0865502 116:-0.244546 117:0.17743 118:0.233681 119:-0.406575 120:0.088219 121:-0.314544 122:0.159509 123:0.0700787 124:-0.164718 125:-0.299412 126:-0.209588 127:-0.265856 128:0.563295 
0.8959402794517605 1 0.06652488090056655 0 0.1665570515935132 0.7605880146973997 0 1 1 0 0.2298482992181294 1:0.106181 2:0.256702 3:0.741781 4:0.0163289 5:-0.435662 6:0.581543 7:0.177242 8:-0.171857 9:0.490385 10:-0.433272 11:0.0750748 12:0.348514 13:0.443246 14:-0.206526 15:-0.281824 16:0.553309 17:-0.0979547 18:0.143357 19:0.283244 20:-0.0775676 21:0.473954 22:-0.0286885 23:-0.800328 24:-0.183818 25:-0.24945 26:-0.485888 27:0.323598 28:0.436972 29:0.21875 30:-0.57999 31:-0.0586615 32:0.781864 33:-0.571915 34:0.262236 35:-0.344412 36:0.478439 37:0.0243337 38:-0.392083 39:0.122368 40:0.218322 41:-0.0678524 42:-0.758961 43:-0.144356 44:0.754151 45:-0.0684713 46:-0.290896 47:0.190808 48:-0.0647199 49:-0.371993 50:0.436605 51:-0.052935 52:-0.326462 53:-0.467731 54:0.346616 55:-0.393707 56:0.306373 57:-0.00823331 58:-0.335379 59:0.486138 60:0.261866 61:0.308615 62:-0.313125 63:0.0487081 64:0.471921 65:0.242454 66:-0.130614 67:-0.295464 68:-0.00160582 69:0.130426 70:-0.664124 71:-0.115237 72:-0.122241 73:-0.32078 74:-0.229077 75:-0.346908 76:-0.286731 77:-0.539048 78:0.0570478 79:0.641699 80:-0.117514 81:0.331646 82:-0.325292 83:0.417425 84:0.00697644 85:0.200563 86:0.0382345 87:0.0390459 88:-0.142256 89:-0.375689 90:-0.120544 91:-0.170529 92:-0.18098 93:-0.156228 94:0.450041 95:0.363547 96:0.0685585 97:-0.0721726 98:-0.445453 99:0.211195 100:-0.470884 101:-0.0958074 102:0.532569 103:0.306995 104:0.0397039 105:0.108734 106:0.08883 107:0.0285789 108:0.450436 109:0.364272 110:0.572505 111:0.539063 112:-0.195212 113:0.0552469 114:0.0301277 115:0.108086 116:-0.143985 117:0.527 118:0.210797 119:0.141899 120:0.480303 121:-0.553178 122:0.394172 123:-0.604724 124:-0.124923 125:-0.235489 126:-0.139857 127:0.161019 128:0.469771 
1 1 0 1 1 0 0 1 0 0 0 1:-0.754998 2:-0.0682152 3:0.0617765 4:-0.226941 5:-0.441561 6:0.326817 7:-0.419757 8:0.385787 9:0.145101 10:-0.336213 11:0.150349 12:0.692349 13:0.619539 14:-0.00524757 15:-0.181933 16:0.483617 17:0.090709 18:0.737959 19:0.243782 20:-0.148443 21:-0.551702 22:0.0392272 23:-0.155074 24:-0.0342604 25:0.106848 26:0.401515 27:-0.0521803 28:-0.47876 29:0.0178354 30:-0.393931 31:-0.154756 32:-0.147086 33:-0.380606 34:0.625805 35:0.0073951 36:-0.245725 37:-0.117568 38:-0.284637 39:-0.0566713 40:-0.203211 41:-0.575264 42:-0.399379 43:0.0677498 44:0.50162 45:0.271762 46:-0.0625194 47:0.206831 48:0.0717614 49:-0.181701 50:-0.0552623 51:0.176625 52:0.0864222 53:-0.269839 54:-0.138697 55:0.204211 56:0.313858 57:-0.172503 58:-0.586611 59:0.129621 60:0.179513 61:0.128601 62:-0.471427 63:0.35525 64:0.532798 65:0.52008 66:0.0699019 67:-0.372565 68:-0.411626 69:-0.402498 70:-0.110857 71:-0.336958 72:-0.239497 73:-0.294465 74:-0.249817 75:0.0907994 76:-0.026929 77:0.129996 78:0.0785367 79:0.214807 80:-0.481834 81:-0.150856 82:-0.0769082 83:0.283745 84:-0.318678 85:-0.0882353 86:0.157155 87:0.074661 88:-0.306448 89:-0.118546 90:-0.00938086 91:-0.25344 92:-0.214239 93:-0.343657 94:0.452779 95:0.117898 96:-0.418147 97:0.651786 98:-0.230437 99:0.382483 100:0.128397 101:0.0594376 102:0.0324294 103:0.0449438 104:0.0726783 105:0.410506 106:-0.0775605 107:0.213949 108:0.0209695 109:0.156117 110:-0.150973 111:0.0516304 112:-0.418071 113:-0.274074 114:0.427745 115:0.0231613 116:-0.441097 117:0.279259 118:0.145665 119:-0.661858 120:-0.188829 121:-0.13886 122:0.227301 123:0.225984 124:-0.0678974 125:-0.128582 126:-0.240887 127:-0.125109 128:0.328116 
0 1 0 0 0.1112548241106458 0 0 0 0 0 0 1:-0.648232 2:-4.59053e-005 3:0.274083 4:-0.19374 5:-0.380551 6:0.192605 7:-0.401702 8:0.336554 9:0.274879 10:-0.242463 11:0.0792622 12:0.569645 13:0.523579 14:-0.283005 15:-0.180369 16:0.496953 17:-0.00586994 18:0.623198 19:0.351887 20:0.00925225 21:-0.607135 22:0.0539813 23:-0.490312 24:0.314159 25:-0.0820957 26:0.236928 27:-0.0323531 28:-0.380794 29:-0.0422256 30:-0.08319 31:-0.145357 32:0.026488 33:-0.389886 34:0.545128 35:0.12123 36:-0.0473775 37:-0.0252251 38:-0.318253 39:-0.333604 40:-0.121203 41:-0.455204 42:-0.0719729 43:0.106448 44:0.466991 45:0.32201 46:0.0201509 47:-0.0402699 48:-0.0740396 49:-0.0294244 50:-0.0849941 51:0.124389 52:0.0122894 53:-0.253869 54:-0.194381 55:0.134585 56:0.400353 57:-0.374268 58:-0.762157 59:0.131809 60:0.274037 61:0.280221 62:-0.190749 63:0.128752 64:0.222747 65:0.838114 66:0.303046 67:-0.284294 68:-0.48999 69:-0.427059 70:-0.299771 71:-0.19878 72:-0.318775 73:0.0140653 74:-0.114277 75:0.0636501 76:0.170364 77:0.142541 78:0.420824 79:0.0905039 80:-0.534703 81:-0.779002 82:0.204091 83:0.0912874 84:-0.109385 85:0.418335 86:-0.0655046 87:-0.0720471 88:-0.368048 89:-0.269674 90:-0.430113 91:0.213613 92:-0.292192 93:-0.250287 94:0.58582 95:0.495895 96:-0.249553 97:0.530506 98:-0.307105 99:0.451931 100:-0.074335 101:0.285402 102:0.149567 103:-0.27075 104:0.0508075 105:0.666613 106:-0.18462 107:0.115364 108:-0.0321351 109:0.334926 110:0.18236 111:0.251019 112:-0.204316 113:-0.131173 114:0.373957 115:-0.245022 116:-0.115728 117:-0.12894 118:0.326977 119:-0.277088 120:0.45848 121:-0.44785 122:0.34908 123:0.0677165 124:-0.0982564 125:-0.0150625 126:-0.0820127 127:0.104257 128:0.208765 
0.4772696046649196 0.7267676375882701 0 1 1 0 0.2117347106314675 0.240819453717426 0.5320212511610127 0 0 1:-0.45966 2:0.0684906 3:0.309224 4:-0.0748549 5:-0.310609 6:0.333955 7:-0.24232 8:0.270182 9:0.161802 10:-0.600827 11:0.378564 12:0.854564 13:0.499452 14:-0.172235 15:-0.205385 16:0.511293 17:0.041273 18:0.448882 19:0.409523 20:-0.0914169 21:-0.30936 22:0.0844262 23:-0.453793 24:0.0969659 25:-0.236386 26:0.131165 27:-0.215085 28:-0.0689083 29:0.0487805 30:-0.29292 31:-0.365581 32:0.227641 33:-0.247758 34:0.416405 35:-0.350561 36:0.320678 37:-0.323826 38:-0.478165 39:-0.389219 40:-0.314969 41:-0.0853096 42:-0.41368 43:0.0368365 44:0.170717 45:0.421798 46:-0.099101 47:-0.234662 48:-0.174071 49:0.178265 50:0.150706 51:0.0931167 52:-0.348464 53:-0.162167 54:0.266411 55:-0.225984 56:0.378938 57:-0.571273 58:-0.660251 59:0.404426 60:0.170183 61:0.194211 62:-0.576064 63:0.207257 64:0.185229 65:0.0783238 66:-0.417243 67:-0.376379 68:-0.281233 69:-0.697862 70:-0.426392 71:-0.0773107 72:-0.346546 73:-0.299909 74:-0.286268 75:0.0898944 76:-0.215571 77:0.0517771 78:0.301612 79:0.151913 80:-0.06665 81:-0.106478 82:-0.24848 83:-0.0197659 84:-0.365276 85:0.0450563 86:0.325836 87:0.0302238 88:-0.264791 89:-0.111779 90:-0.000234522 91:-0.16365 92:-0.349357 93:-0.131452 94:0.555981 95:0.481117 96:0.0280196 97:0.43378 98:-0.330163 99:0.289194 100:-0.162329 101:-0.0951339 102:0.612245 103:0.281261 104:-0.228802 105:0.819895 106:0.0652967 107:0.0899318 108:0.25 109:-0.0469203 110:0.0954175 111:-0.0421196 112:-0.0761969 113:0.0521605 114:-0.175149 115:0.140187 116:-0.24787 117:0.00815517 118:-0.0256711 119:-0.674606 120:0.437396 121:-0.507097 122:-0.108589 123:0.247638 124:-0.228308 125:-0.176708 126:-0.190174 127:-0.477845 128:0.34729 
0 0 0.2915706694860995 0 0 0 0 0 0 0 0 1:-0.638967 2:-0.13487 3:0.429121 4:-0.185117 5:-0.489256 6:0.156141 7:-0.179061 8:0.544207 9:0.234965 10:0.0630515 11:-0.0112662 12:0.415935 13:0.764668 14:-0.406869 15:-0.112617 16:0.331899 17:0.0963038 18:0.953112 19:-0.0267407 20:-0.0541752 21:-0.651624 22:-0.247892 23:-0.166765 24:0.126043 25:0.403053 26:0.199346 27:0.24362 28:-0.444306 29:0.121799 30:-0.294433 31:-0.28164 32:-0.220629 33:-0.544386 34:0.822781 35:0.093145 36:0.0660339 37:-0.0585614 38:-0.166824 39:0.117001 40:0.00739808 41:-0.352931 42:-0.419324 43:0.213742 44:0.220332 45:0.0582095 46:-0.254314 47:-0.0328906 48:-0.22771 49:-0.298754 50:-0.0660347 51:0.337177 52:0.294945 53:-0.197234 54:-0.218391 55:0.0271564 56:0.0362824 57:-0.470886 58:-0.587727 59:0.563959 60:0.175862 61:0.170779 62:-0.00460312 63:0.243101 64:0.282681 65:0.407832 66:-0.0930305 67:-0.605503 68:-0.542447 69:-0.50794 70:-0.148233 71:-0.00888476 72:0.0431996 73:-0.364564 74:-0.393736 75:-0.26184 76:0.0754849 77:0.319641 78:0.158608 79:-0.178408 80:-0.281884 81:-0.494564 82:0.00202644 83:-0.0941482 84:0.00697644 85:0.265645 86:-0.171774 87:0.292599 88:-0.453135 89:0.052381 90:-0.212946 91:-0.152064 92:0.0188385 93:-0.238128 94:0.781002 95:0.335961 96:-0.2951 97:0.475446 98:-0.152327 99:0.635139 100:0.139037 101:-0.122748 102:0.0472463 103:0.335266 104:0.0743607 105:0.517484 106:0.239311 107:0.470897 108:0.0520153 109:0.452653 110:0.208726 111:0.0944293 112:-0.506069 113:0.260494 114:0.130553 115:-0.120683 116:-0.423229 117:-0.232973 118:0.275048 119:-0.408923 120:0.416682 121:-0.232257 122:0.58773 123:-0.254724 124:-0.718974 125:0.0558413 126:-0.026149 127:-0.145381 128:0.510468 
0 0.2302928596420403 0 0 0 1 0 0 0 0 0 1:-0.69068 2:-0.0644051 3:0.259413 4:-0.212411 5:-0.364372 6:0.0926045 7:-0.39722 8:0.30432 9:0.393779 10:-0.151654 11:0.180558 12:0.508795 13:0.574666 14:-0.358134 15:-0.323431 16:0.529648 17:-0.0565899 18:0.613934 19:0.181162 20:-0.152982 21:-0.796745 22:-0.101054 23:-0.340033 24:0.380784 25:0.109461 26:-0.0499109 27:0.182665 28:-0.505742 29:0.0631098 30:-0.0977775 31:-0.269 32:-0.227018 33:-0.475564 34:0.653645 35:0.0497715 36:0.133459 37:-0.0532133 38:-0.122055 39:-0.327425 40:0.0316386 41:-0.480402 42:-0.358171 43:0.263271 44:0.319563 45:0.160828 46:0.0112638 47:0.0280413 48:-0.124573 49:-0.235825 50:-0.268771 51:0.254892 52:0.181368 53:-0.243497 54:-0.392763 55:-0.0989353 56:0.179333 57:-0.411963 58:-0.486007 59:0.119163 60:0.202637 61:0.375327 62:-0.132143 63:0.241341 64:0.285276 65:0.327014 66:0.117398 67:-0.608228 68:-0.567498 69:-0.358882 70:-0.254767 71:-0.343323 72:-0.280323 73:0.23412 74:-0.281659 75:-0.00935143 76:0.149435 77:0.466486 78:0.13584 79:-0.10858 80:-0.402656 81:-0.747133 82:-0.0124481 83:-0.0881664 84:-0.0772673 85:0.185232 86:-0.149564 87:0.0589773 88:-0.190561 89:-0.181203 90:-0.241088 91:-0.184287 92:-0.103547 93:-0.261069 94:0.257049 95:0.12578 96:-0.372124 97:0.432664 98:-0.320363 99:0.474734 100:-0.143925 101:-0.259808 102:-0.0117417 103:-0.263501 104:0.122813 105:0.511736 106:-0.0225389 107:0.251704 108:-0.119553 109:0.423307 110:0.327056 111:0.0383832 112:-0.555968 113:-0.146296 114:0.347404 115:-0.258025 116:0.180968 117:-0.114834 118:0.189966 119:-0.116404 120:0.300536 121:-0.362683 122:0.549693 123:0.183858 124:-0.339897 125:-0.109846 126:-0.150158 127:0.0993339 128:0.420074 
0 0.2048596270887282 0 0 1 1 0.07858837653848597 0 0 0 0 1:-0.381694 2:0.0410852 3:0.428829 4:-0.0631768 5:-0.20182 6:0.263794 7:-0.448529 8:0.126997 9:0.318164 10:-0.536949 11:0.508375 12:0.728457 13:0.375982 14:-0.202577 15:-0.204691 16:0.674912 17:-0.00981381 18:0.176348 19:0.345345 20:-0.188944 21:-0.378722 22:0.11089 23:-0.585156 24:0.305057 25:-0.387376 26:0.0366904 27:-0.197937 28:-0.0860661 29:0.198018 30:-0.207597 31:-0.312753 32:0.230446 33:-0.27111 34:0.439605 35:-0.189032 36:0.647983 37:-0.16481 38:-0.414389 39:-0.355395 40:0.00440737 41:-0.200099 42:-0.120519 43:0.104079 44:0.380923 45:0.208776 46:-0.0176708 47:-0.0600886 48:0.00445273 49:0.122208 50:-0.00872563 51:0.374214 52:-0.0190287 53:-0.43217 54:0.102937 55:-0.335088 56:0.316561 57:-0.39629 58:-0.613017 59:0.474222 60:-0.0574037 61:0.295382 62:-0.443584 63:-0.246839 64:0.269467 65:0.393365 66:-0.156427 67:-0.363574 68:-0.0669093 69:-0.698285 70:-0.40122 71:0.131415 72:-0.251127 73:-0.118421 74:-0.191579 75:-0.080543 76:-0.0182782 77:0.154102 78:0.273471 79:0.365606 80:-0.282636 81:-0.149665 82:-0.0109042 83:0.142783 84:-0.353956 85:0.596996 86:-0.292381 87:-0.000163372 88:-0.155772 89:-0.00426065 90:-0.165807 91:-0.0590152 92:-0.185917 93:-0.300069 94:0.473583 95:0.181609 96:-0.136282 97:0.285342 98:-0.212278 99:0.600415 100:-0.384903 101:0.142617 102:0.244339 103:0.129032 104:-0.133917 105:0.647134 106:0.0271793 107:-0.0540115 108:0.0449346 109:-0.0390718 110:0.11833 111:0.171535 112:-0.489885 113:-0.0496914 114:-0.0389787 115:-0.0231613 116:-0.245793 117:0.135111 118:-0.0277248 119:-0.063737 120:0.18809 121:-0.295207 122:0.18589 123:0.0700787 124:-0.282462 125:-0.250918 126:0.046355 127:0.0249059 128:0.0655449 
0 0 0 0 0 0 0 0 0 0 1 1:-0.311073 2:-0.00560044 3:0.632558 4:-0.176223 5:-0.288784 6:0.126945 7:-0.319218 8:0.18547 9:0.281928 10:-0.280699 11:0.289432 12:0.446631 13:0.482636 14:-0.351276 15:-0.131292 16:0.556034 17:-0.0509951 18:0.351137 19:0.1417 20:-0.201746 21:-0.268993 22:0.128571 23:-0.627455 24:0.127054 25:-0.582371 26:-0.0513963 27:-0.195525 28:-0.0770721 29:0.352744 30:-0.27902 31:-0.0698428 32:0.402462 33:-0.390195 34:0.450831 35:-0.501953 36:0.173063 37:-0.47678 38:-0.234527 39:0.0517928 40:-0.269007 41:0.0279974 42:-0.508138 43:0.061883 44:0.499797 45:0.352265 46:-0.150977 47:0.152224 48:0.0835663 49:-0.413445 50:0.397824 51:0.533892 52:0.15441 53:-0.250741 54:0.00332056 55:-0.038641 56:0.0142426 57:-0.275469 58:-0.939563 59:0.640807 60:0.102231 61:0.188973 62:-0.306388 63:-0.243101 64:0.4521 65:0.357446 66:-0.0155911 67:-0.470917 68:-0.256825 69:-0.723269 70:-0.486651 71:0.244928 72:-0.446475 73:-0.201452 74:-0.0501728 75:-0.363198 76:-0.262174 77:-0.251753 78:-0.0327449 79:0.0266188 80:-0.379103 81:-0.395383 82:-0.270482 83:-0.442653 84:-0.655917 85:0.723717 86:0.0705651 87:0.0831563 88:-0.490361 89:0.133584 90:-0.128049 91:0.221941 92:0.159673 93:0.0669878 94:0.257596 95:0.147455 96:-0.00321927 97:0.115699 98:-0.157804 99:0.582793 100:-0.0487419 101:0.304933 102:0.309757 103:-0.237042 104:-0.250336 105:0.424238 106:0.356977 107:0.267698 108:0.41585 109:0.180686 110:0.264595 111:0.334239 112:-0.405934 113:-0.155864 114:-0.156426 115:-0.0662332 116:-0.0974444 117:-0.151422 118:-0.150946 119:0.0164374 120:0.239134 121:-0.491874 122:0.394479 123:-0.247638 124:-0.638974 125:-0.216752 126:-0.103407 127:-0.0289603 128:-0.147329 
1 1 1 0.7354179430976257 0.9493001896690612 1 1 1 0.2168363295413679 0.7154881709366374 1 1:-0.708961 2:-0.00560044 3:0.378969 4:-0.291917 5:-0.179321 6:-0.113055 7:-0.0219523 8:0.203738 9:-0.0668812 10:-0.212684 11:-0.149452 12:0.66753 13:0.0656187 14:-0.461007 15:-0.170467 16:0.410769 17:-0.236724 18:0.426384 19:0.601329 20:0.418446 21:-0.536209 22:-0.085363 23:-0.595928 24:0.266751 25:0.0303905 26:0.524361 27:0.0851363 28:-0.614778 29:-0.189177 30:-0.226588 31:-0.0897748 32:0.119663 33:-0.857717 34:-0.0383176 35:0.10511 36:0.296293 37:0.17408 38:-0.689444 39:-0.74193 40:0.0413978 41:-0.360178 42:-0.339543 43:0.333672 44:0.164642 45:-0.250354 46:-0.332231 47:-0.20915 48:-0.307445 49:-0.160009 50:-0.293332 51:0.238819 52:-0.479485 53:-0.247942 54:-0.476373 55:0.737289 56:0.48373 57:-0.311378 58:-0.356392 59:-0.246352 60:-0.0310345 61:-0.292626 62:-0.682497 63:0.385157 64:0.478056 65:0.474183 66:0.214249 67:-0.558098 68:-0.640081 69:-0.0277366 70:0.0610221 71:0.500597 72:-0.435794 73:-0.392468 74:-0.669006 75:0.447662 76:-0.451374 77:0.317427 78:0.430289 79:0.356692 80:-0.419193 81:-0.655994 82:-0.0805751 83:-0.276723 84:-0.137554 85:-0.0613267 86:0.244026 87:-0.521974 88:-0.550632 89:0.0318296 90:0.022045 91:0.294352 92:-0.202027 93:0.0201881 94:0.254585 95:0.394089 96:-0.3075 97:0.516369 98:0.0278138 99:0.304483 100:-0.674766 101:0.191783 102:-0.0159351 103:0.0695904 104:0.000672948 105:0.33163 106:-0.198873 107:-0.058731 108:-0.109205 109:-0.320935 110:0.426554 111:0.138927 112:-0.281861 113:-0.289198 114:0.646979 115:-0.232426 116:-0.168918 117:-0.540225 118:0.11398 119:-0.499832 120:0.725911 121:0.151615 122:0.705521 123:0.351969 124:-0.830564 125:0.06723 126:-0.194532 127:0.308717 128:0.47838 
1 1 1 0.6519141646325672 1 0.7546574816903109 1 0.9579630921605589 1 1 1 1:0.197462 2:0.139919 3:0.635141 4:0.0363581 5:-0.651892 6:0.700193 7:0.594726 8:-0.169811 9:0.3829 10:-0.0463235 11:-0.100997 12:0.364673 13:0.588741 14:-0.365096 15:-0.250033 16:0.144619 17:0.0844722 18:-0.0835185 19:0.142946 20:-0.447541 21:0.485467 22:-0.107494 23:-0.762233 24:-0.218584 25:-0.253713 26:-0.808675 27:0.355483 28:0.337623 29:0.053811 30:-0.185578 31:-0.197051 32:0.526332 33:-1 34:0.193384 35:-0.239385 36:-0.140496 37:-0.0362777 38:-0.143418 39:0.487275 40:0.0832677 41:0.00444664 42:-0.451124 43:-0.187229 44:0.456258 45:-0.02477 46:-0.259688 47:0.280624 48:0.159159 49:-0.439003 50:0.874825 51:0.154263 52:-0.286224 53:-0.25568 54:0.547382 55:-0.339634 56:0.0497973 57:0.25186 58:-0.0897257 59:0.263862 60:0.469574 61:0.0687802 62:0.359829 63:0.0797141 64:0.9311 65:0.38663 66:-0.417656 67:0.0224765 68:-0.184456 69:-0.197756 70:-0.643783 71:-0.0107413 72:0.772134 73:-0.670599 74:-0.168116 75:-0.570136 76:-0.323845 77:-0.521584 78:0.121003 79:0.563204 80:-0.370333 81:-0.097245 82:-0.0724694 83:0.384655 84:0.15335 85:0.448999 86:0.208884 87:0.21222 88:0.181919 89:-0.382957 90:-0.0408068 91:0.610065 92:-0.307003 93:-0.0481762 94:0.845606 95:0.822003 96:0.0943126 97:0.326637 98:-0.175386 99:0.409173 100:-0.0381021 101:-0.648089 102:0.585407 103:0.173251 104:0.891992 105:0.180904 106:0.473318 107:0.0183534 108:0.60158 109:0.804129 110:0.522285 111:0.434783 112:-0.238368 113:0.0188272 114:-0.428426 115:0.149939 116:-0.486391 117:-0.0160899 118:0.145959 119:0.338477 120:0.0349547 121:-0.412055 122:0.407055 123:-0.814961 124:-0.00923077 125:0.0356356 126:0.221078 127:-0.177237 128:0.152025 
1 1 0.7370020258377925 0 1 1 1 0.6874235381224443 0.1371280775110959 1 1 1:-0.689303 2:-0.109071 3:0.161789 4:-0.183963 5:-0.452431 6:0.241608 7:-0.536858 8:0.151755 9:0.302459 10:0.0269301 11:0.264008 12:0.391735 13:0.489307 14:-0.415493 15:-0.214419 16:0.423245 17:-0.010089 18:0.481212 19:0.123423 20:0.179983 21:-0.597612 22:-0.0677986 23:-0.51619 24:0.446271 25:-0.0242024 26:0.136512 27:0.131891 28:-0.570776 29:-0.166921 30:-0.0908966 31:-0.185545 32:-0.161109 33:-0.371172 34:0.632091 35:-0.0439551 36:0.190574 37:-0.123095 38:-0.0991203 39:-0.331978 40:-0.0626476 41:-0.467721 42:-0.180732 43:0.137474 44:0.494735 45:0.21833 46:-0.0189108 47:0.029728 48:-0.181112 49:-0.173969 50:-0.315954 51:0.140636 52:0.293162 53:-0.480738 54:-0.225202 55:0.307573 56:0.363551 57:-0.359191 58:-0.467968 59:0.0809825 60:-0.111765 61:0.279118 62:-0.248905 63:0.17801 64:0.138273 65:0.582689 66:0.344347 67:-0.218635 68:-0.265175 69:-0.361846 70:-0.203153 71:-0.0916324 72:-0.300498 73:-0.200544 74:-0.348905 75:0.092911 76:0.0110227 77:0.206002 78:0.10463 79:0.164789 80:-0.556252 81:-0.607148 82:0.102383 83:-0.189857 84:-0.12755 85:-0.0663329 86:-0.226314 87:-0.183467 88:-0.19322 89:0.0546366 90:-0.168856 91:0.138668 92:-0.187995 93:-0.302822 94:0.529154 95:0.419704 96:-0.438417 97:0.853051 98:0.00850267 99:0.353459 100:-0.140187 101:-0.320424 102:0.21806 103:-0.234143 104:0.0265814 105:0.346639 106:-0.19821 107:0.0776088 108:-0.251634 109:0.0731957 110:0.0649718 111:0.144022 112:-0.503709 113:-0.233333 114:0.210213 115:0.193824 116:0.142323 117:-0.352876 118:0.0743729 119:-0.22744 120:0.22101 121:0.00843448 122:0.467178 123:-0.0011811 124:-0.325949 125:-0.0492285 126:-0.107369 127:0.216623 128:0.0479358 
0 0 0 0.03060896144660919 1 0 0 0 0 0.7337264579998135 0.8185983979128071 1:-0.524897 2:-0.125413 3:0.577678 4:-0.16115 5:-0.34499 6:0.261801 7:-0.343703 8:0.554082 9:0.0912434 10:0.170221 11:0.0784646 12:0.269494 13:0.706361 14:-0.463189 15:-0.0839522 16:0.486198 17:0.0780519 18:0.603157 19:-0.126019 20:0.200582 21:-0.379149 22:-0.0673302 23:-0.446437 24:0.0864728 25:0.371287 26:-0.0500594 27:0.00301427 28:-0.408607 29:0.042378 30:-0.235533 31:-0.281964 32:0.0244624 33:-0.474018 34:0.671905 35:0.0605733 36:0.0856722 37:-0.313308 38:-0.406221 39:-0.0550451 40:0.0365182 41:-0.310935 42:-0.3275 43:0.0367236 44:0.328068 45:0.154989 46:-0.167924 47:0.0527093 48:0.068862 49:-0.380369 50:-0.0285468 51:0.232704 52:0.0753221 53:-0.174844 54:-0.130353 55:-0.327671 56:0.174966 57:-0.201468 58:-0.428173 59:0.541342 60:0.189452 61:0.453894 62:-0.109015 63:0.0962067 64:0.374705 65:0.364181 66:0.0610222 67:-0.206103 68:-0.471791 69:-0.634343 70:-0.539792 71:-0.0476064 72:-0.084263 73:-0.382033 74:-0.519011 75:-0.300452 76:-0.199944 77:0.165908 78:0.32438 79:0.100409 80:-0.413681 81:-0.485331 82:-0.016308 83:-0.0215865 84:-0.118336 85:0.32572 86:-0.172899 87:0.362849 88:-0.416131 89:-0.109524 90:-0.132505 91:-0.287111 92:-0.0760036 93:-0.468915 94:0.642486 95:0.357964 96:-0.101705 97:0.701265 98:-0.00907912 99:0.493651 100:0.044716 101:-0.0281192 102:0.184792 103:0.0166727 104:0.233513 105:0.34632 106:-0.0129267 107:0.321185 108:0.205882 109:0.202525 110:0.102637 111:0.282948 112:-0.427512 113:0.121914 114:0.228255 115:0.140593 116:-0.207563 117:-0.384175 118:0.289424 119:-0.266018 120:-0.0682449 121:-0.354042 122:0.177301 123:-0.353937 124:-0.549949 125:-0.275165 126:-0.126783 127:-0.0767449 128:0.414596 
1 0 0 0 0 0 0 0.6008745880140782 0 0 0 1:-0.661714 2:0.00711531 3:-0.0999391 4:-0.210986 5:-0.451336 6:0.0621222 7:-0.191661 8:0.697761 9:0.30989 10:-0.662132 11:-0.0767697 12:0.928171 13:0.595778 14:-0.124435 15:0.0588491 16:0.70517 17:-0.0287077 18:0.873328 19:0.418454 20:-0.548909 21:-0.685452 22:-0.0216628 23:0.159803 24:0.155626 25:0.491337 26:0.62552 27:0.0366401 28:-0.298741 29:0.182317 30:-0.354297 31:-0.131745 32:-0.252883 33:-0.198423 34:0.666667 35:-0.0795181 36:0.210703 37:-0.123986 38:-0.354854 39:0.0822018 40:0.000314812 41:-0.378623 42:-0.0399849 43:0.21329 44:0.487647 45:0.161182 46:-0.255968 47:-0.13093 48:-0.188775 49:-0.229596 50:-0.241194 51:0.22921 52:0.114172 53:0.0739216 54:-0.123542 55:0.360689 56:0.143778 57:-0.211586 58:-0.694282 59:0.0749027 60:0.376268 61:0.136871 62:-0.375098 63:0.463661 64:0.481123 65:0.210526 66:0.100671 67:-0.614221 68:-0.704957 69:-0.379208 70:0.251462 71:-0.314149 72:-0.00474721 73:-0.15971 74:-0.240809 75:-0.358069 76:0.0743686 77:0.206494 78:0.0764902 79:0.259131 80:-0.312202 81:-0.477587 82:-0.298273 83:-0.105852 84:-0.239963 85:0.346683 86:0.28226 87:0.090018 88:-0.386882 89:-0.0556391 90:-0.0680113 91:0.312817 92:-0.134468 93:-0.123423 94:0.151109 95:0.189491 96:-0.137952 97:0.386533 98:-0.376855 99:0.643172 100:0.28138 101:-0.0688668 102:-0.026279 103:0.0728525 104:-0.29004 105:0.620629 106:-0.0374544 107:0.36838 108:0.25463 109:0.186146 110:-0.069366 111:0.317595 112:-0.100809 113:0.0287037 114:0.17583 115:-0.142219 116:-0.541658 117:0.114393 118:0.40619 119:-0.585039 120:0.18809 121:-0.391072 122:0.157669 123:0.192913 124:-0.661538 125:0.16532 126:0.214342 127:-0.257457 128:0.621209 
0 0 0 0 0.3836118023954629 0 0 0 0.4798552843119613 0 0 1:-0.705831 2:0.0820327 3:0.235921 4:-0.228706 5:-0.288447 6:0.182572 7:-0.259401 8:0.375066 9:0.142879 10:-0.461857 11:0.210369 12:0.681679 13:0.387772 14:-0.17317 15:-0.0714441 16:0.663297 17:0.109144 18:0.646547 19:0.489901 20:-0.00448065 21:-0.368631 22:-0.146487 23:-0.403087 24:-0.0370417 25:-0.20242 26:0.111557 27:-0.110456 28:-0.326 29:-0.0631098 30:-0.55632 31:-0.244045 32:0.125896 33:-0.554748 34:0.463553 35:-0.0710428 36:0.147042 37:-0.110438 38:-0.534402 39:-0.33832 40:0.0025185 41:-0.405797 42:-0.369273 43:-0.142325 44:0.644593 45:0.0498938 46:-0.210292 47:0.358845 48:-0.207621 49:-0.297895 50:-0.0500916 51:0.274284 52:-0.260852 53:-0.0920316 54:-0.227246 55:0.38318 56:0.504314 57:-0.561948 58:-0.247048 59:0.184339 60:0.0967546 61:0.16499 62:-0.536095 63:0.294338 64:0.282916 65:0.472686 66:0.158699 67:-0.435499 68:-0.487207 69:-0.574635 70:-0.381643 71:-0.423153 72:-0.336577 73:-0.202586 74:-0.434796 75:0.158069 76:0.205246 77:0.248309 78:0.400614 79:0.4701 80:-0.590829 81:-0.137751 82:-0.220496 83:-0.056697 84:-0.59326 85:0.0938673 86:0.412707 87:0.185427 88:-0.536007 89:-0.167419 90:-0.150563 91:0.00398262 92:-0.235286 93:-0.119752 94:0.00164249 95:-0.0446634 96:-0.214022 97:0.5625 98:-0.0736417 99:0.243327 100:-0.253487 101:0.351069 102:-0.0215264 103:0.295759 104:-0.235868 105:0.444036 106:-0.186941 107:0.0432617 108:0.114651 109:0.0097253 110:0.123666 111:0.0747283 112:-0.24174 113:0.0567901 114:0.286128 115:-0.249492 116:-0.641388 117:-0.412387 118:0.01951 119:-0.641396 120:0.143333 121:-0.75108 122:0.160736 123:-0.092126 124:-0.243077 125:-0.194342 126:-0.0756735 127:-0.00984651 128:0.239288 
0 0.3672558778646524 0 0 0.8906991653008858 0 0 0 0 0 0 1:-0.72215 2:0.034888 3:0.239673 4:-0.173915 5:-0.384512 6:0.297428 7:-0.288433 8:0.43107 9:0.124492 10:-0.409283 11:0.336889 12:0.778018 13:0.633705 14:-0.0725827 15:-0.100803 16:0.565641 17:0.0616344 18:0.699201 19:0.234955 20:-0.258307 21:-0.599176 22:-0.0885246 23:-0.180296 24:-0.0171934 25:0.00440044 26:0.0197564 27:0.0264586 28:-0.431991 29:0.097561 30:-0.276818 31:-0.043591 32:-0.0149579 33:-0.424528 34:0.768298 35:-0.0549231 36:0.0769986 37:-0.251627 38:-0.192586 39:-0.199935 40:-0.0149536 41:-0.299572 42:-0.0467589 43:0.122243 44:0.31531 45:0.0500708 46:-0.0215976 47:0.21674 48:-0.00818059 49:-0.222079 50:-0.0890876 51:0.256639 52:0.218831 53:-0.166118 54:-0.22401 55:0.205647 56:0.449423 57:-0.413947 58:-0.516132 59:0.156372 60:0.0866126 61:0.247967 62:-0.223532 63:0.300495 64:0.3832 65:0.407583 66:-0.125039 67:-0.309631 68:-0.361096 69:-0.584586 70:0.00101704 71:0.00596738 72:-0.126751 73:-0.0839383 74:-0.304075 75:0.203017 76:0.0623692 77:0.212889 78:0.279355 79:0.412653 80:-0.464545 81:-0.654207 82:-0.266429 83:0.230949 84:-0.158879 85:0.317584 86:0.254428 87:0.0687796 88:-0.251496 89:-0.314035 90:-0.283537 91:-0.0141202 92:-0.207483 93:-0.0740996 94:0.355872 95:0.230542 96:-0.124359 97:0.627976 98:-0.0485661 99:0.393366 100:0.0346513 101:0.102879 102:0.124685 103:-0.0989489 104:-0.182369 105:0.61999 106:0.0341399 107:0.306502 108:0.0751634 109:-0.0404368 110:-0.0301318 111:0.347147 112:-0.435941 113:0.0299383 114:0.058383 115:-0.0162536 116:-0.340536 117:-0.124972 118:0.111926 119:-0.437773 120:0.0556686 121:-0.174655 122:0.289571 123:0.179134 124:-0.649641 125:0.0822924 126:-0.187401 127:-0.163626 128:0.481119 
0 0 0 0 0.1907642063323634 0 0 0 0 0 0 1:-0.538128 2:0.0904333 3:0.354259 4:-0.226805 5:-0.302098 6:0.200193 7:-0.511139 8:0.303403 9:0.182563 10:-0.343658 11:0.347757 12:0.671396 13:0.444708 14:-0.135554 15:-0.0774376 16:0.645659 17:-0.047143 18:0.309732 19:0.210136 20:-0.00378237 21:-0.384692 22:0.222834 23:-0.586995 24:0.012263 25:-0.333608 26:0.0871955 27:-0.123987 28:-0.371247 29:0.100305 30:-0.382096 31:-0.362178 32:0.127454 33:-0.25348 34:0.636282 35:-0.246697 36:0.178954 37:-0.299403 38:-0.202953 39:-0.320758 40:-0.221313 41:-0.389493 42:-0.306426 43:0.10814 44:0.482787 45:0.139243 46:-0.0955875 47:0.417457 48:0.0661696 49:-0.269759 50:-0.0173435 51:0.345213 52:-0.000396432 53:-0.284327 54:-0.135973 55:-0.16234 56:0.456492 57:-0.291539 58:-0.575639 59:0.312743 60:-0.0833671 61:0.289593 62:-0.515437 63:-0.136888 64:0.248938 65:0.464704 66:0.0911719 67:-0.448304 68:-0.510973 69:-0.577176 70:-0.537249 71:-0.116298 72:-0.123665 73:0.118875 74:-0.307636 75:0.0745098 76:-0.0573462 77:0.176731 78:0.192888 79:0.243779 80:-0.627412 81:-0.562174 82:-0.122069 83:-0.0678804 84:-0.454258 85:0.477785 86:0.424234 87:0.0380657 88:-0.423443 90:-0.0105535 91:-0.03874 92:-0.306483 93:-0.477862 94:0.232412 95:0.135961 96:-0.170144 97:0.559524 98:0.0159965 99:0.654574 100:-0.0820992 101:0.289106 102:0.137545 103:0.0866256 104:-0.106326 105:0.397094 106:-0.0964534 107:-0.0380178 108:0.123638 109:0.108002 110:0.168864 111:0.0594429 112:-0.267026 113:0.0533951 114:0.0859574 115:0.172288 116:-0.219614 117:0.0566454 118:-0.0869884 119:-0.143576 120:0.246532 121:-0.689364 122:0.0613497 123:-0.298425 124:-0.364923 125:-0.195077 126:-0.121236 127:-0.129453 128:0.11172 
0 0 0 0 1 0 0 0 0 0 0 1:-0.614592 2:-0.0622016 3:0.444036 4:-0.267475 5:-0.47847 6:0.326624 7:-0.410275 8:0.434033 9:0.0694093 10:-0.0564338 11:0.024327 12:0.429698 13:0.601627 14:-0.394503 15:-0.104104 16:0.667599 17:0.165642 18:0.56733 19:0.116257 20:0.170672 21:-0.480634 22:-0.0213115 23:-0.511461 24:-0.0890013 25:0.0126513 26:-0.0221331 27:-0.0263246 28:-0.553203 29:0.0221037 30:-0.43095 31:-0.460055 32:0.073699 33:-0.337457 34:0.664721 35:0.0181969 36:-0.269291 37:-0.110438 38:-0.349356 39:0.0205708 40:-0.19235 41:-0.391798 42:-0.618026 43:0.0933604 44:0.474281 45:0.114827 46:-0.000103338 47:0.317099 48:-0.068862 49:-0.309278 50:0.0645266 51:0.236548 52:0.154014 53:-0.40484 54:-0.139549 55:0.0501256 56:0.253145 57:-0.279238 58:-0.674198 59:0.288424 60:0.311562 61:0.0591316 62:-0.421803 63:0.234964 64:0.201038 65:0.528561 66:0.129169 67:-0.292195 68:-0.464725 69:-0.385348 70:-0.321383 71:0.00358043 72:-0.173985 73:-0.450318 74:-0.340735 75:0.178582 76:-0.191014 77:0.217316 78:0.164748 79:0.328959 80:-0.556753 81:-0.28131 82:-0.0715044 83:-0.0889467 84:-0.345005 85:0.0215895 86:0.172617 87:0.312531 88:-0.605362 89:-0.149123 90:0.0124296 91:-0.266474 92:-0.102767 93:-0.367515 94:0.66767 95:0.212808 96:-0.200429 97:0.437128 98:0.0116732 99:0.576574 100:0.0887132 101:0.300892 102:0.383562 103:0.0275462 104:-0.0538358 105:0.047102 106:-0.210474 107:0.211589 108:-0.0787037 109:0.287494 110:-0.0894539 111:0.127378 112:-0.66352 113:0.0111111 114:0.198979 115:-0.118245 116:-0.397881 117:-0.400926 118:0.110459 119:-0.566253 120:0.18772 121:-0.29891 122:0.200613 123:0.0429134 124:-0.370256 125:-0.0246143 126:-0.141442 127:0.0118737 128:0.263158 
1 0.5205116121307503 0 0 0 1 0 0 0 0 1 1:-0.754497 2:-0.0168472 3:-0.069526 4:-0.175408 5:-0.280779 6:0.147074 7:-0.466844 8:0.249656 9:0.29204 10:-0.453585 11:0.276471 12:0.616964 13:0.42314 14:0.00233803 15:-0.186884 16:0.613824 17:0.00816289 18:0.525925 19:0.24669 20:-0.318592 21:-0.634852 22:-0.0394614 23:-0.344105 24:0.105942 25:0.139576 26:0.261289 27:-0.00529171 28:-0.601356 29:0.109451 30:-0.268699 31:-0.220548 32:-0.160486 33:-0.39236 34:0.628798 35:0.0225177 36:-0.0144833 37:0.315982 38:-0.480836 39:-0.172128 40:-0.228711 41:-0.470685 42:-0.37059 43:0.123484 44:0.423451 45:0.176044 46:-0.125762 47:0.413241 48:0.0394532 49:-0.219716 50:0.139718 51:0.369322 52:0.23449 53:-0.129569 54:-0.376415 55:0.0479722 56:0.203244 57:-0.385577 58:-0.594421 59:0.141294 60:0.0314402 61:0.36816 62:-0.412597 63:0.335679 64:0.454224 65:0.256423 66:0.287145 67:-0.466558 68:-0.771759 69:-0.42346 70:-0.11162 71:-0.348362 72:-0.33634 73:0.0880218 74:-0.164764 75:0.0573152 76:0.0863681 77:0.4168 78:0.227936 79:0.0518757 80:-0.627161 81:-0.379896 82:-0.0948567 83:0.140702 84:-0.249441 85:-0.187422 86:0.103458 87:0.113544 88:-0.11766 89:-0.0135338 90:0.121717 91:0.41202 92:-0.19605 93:-0.446891 94:0.354777 95:0.099179 96:-0.450101 97:0.361235 98:-0.235625 99:0.454522 100:-0.146513 101:-0.0715609 102:-0.0827509 103:0.185937 104:-0.163863 105:0.368354 106:-0.000331455 107:-0.0233351 108:0.180283 109:0.0697833 110:-0.00659134 111:0.199049 112:-0.325017 113:0.0864198 114:-0.293617 115:-0.0552621 116:-0.232495 117:0.113511 118:0.075253 119:-0.582355 120:0.302386 121:0.0290064 122:0.326994 123:0.261024 124:-0.428103 125:0.210507 126:-0.110143 127:0.00405445 128:0.215809 
0 0 0.2477305571756458 0 0.005950547924923755 0 0.153387666458581 0.006109739254549145 0 0 0 1:-0.705163 2:-0.104939 3:0.407871 4:-0.194147 5:-0.478554 6:0.0518328 7:-0.404819 8:0.437207 9:0.33318 10:-0.00726103 11:0.0531406 12:0.364518 13:0.699141 14:-0.464956 15:-0.285385 16:0.530795 17:-0.0310924 18:0.744387 19:-0.0343216 20:0.00901949 21:-0.813091 22:-0.0551522 23:-0.342266 24:0.159292 25:0.191832 26:0.0845217 27:0.203831 28:-0.490383 29:-0.073628 30:-0.164109 31:-0.13288 32:-0.275164 33:-0.385555 34:0.541685 35:0.0559202 36:0.0218476 37:-0.0763883 38:-0.178448 39:-0.0340678 40:0.0080277 41:-0.584651 42:-0.37473 43:0.207311 44:0.443499 45:-0.0291932 46:-0.179911 47:0.0971959 48:-0.205136 49:-0.185137 50:-0.254336 51:0.295597 52:0.395441 53:-0.202502 54:-0.496467 55:0.0826654 56:0.193887 57:-0.332804 58:-0.453464 59:0.243677 60:0.0505071 61:0.369538 62:-0.134164 63:0.351072 64:0.520293 65:0.265403 66:0.391017 67:-0.455388 68:-0.375227 69:-0.240102 70:-0.118993 71:-0.122132 72:-0.137194 73:-0.0646552 74:-0.272232 75:-0.31463 76:-0.0523231 77:0.389251 78:0.0713738 79:-0.326978 80:-0.219995 81:-0.467163 82:-0.118595 83:-0.157607 84:-0.0899039 85:0.197121 86:-0.34889 87:0.13903 88:-0.619544 89:-0.0243108 90:0.12758 91:-0.26937 92:0.0479408 93:-0.47465 94:0.725431 95:0.176355 96:-0.294861 97:0.537202 98:-0.339674 99:0.530967 100:-0.0556434 101:-0.0870517 102:-0.187028 103:-0.0790141 104:-0.0891655 105:0.226249 106:-0.0527014 107:0.367855 108:-0.0359477 109:0.426378 110:0.294413 111:0.111413 112:-0.702293 113:0.0598765 114:0.655149 115:-0.0524177 116:-0.0687721 117:-0.112189 118:0.431128 119:-0.159007 120:0.124098 121:-0.216211 122:0.407362 123:-0.0251969 124:-0.476923 125:-0.204996 126:-0.0689382 127:-0.118737 128:0.402074 
0.4781210787743093 1 0 0 0 0.144647103755374 0 0 0 0 0 1:-0.689762 2:-0.143821 3:0.377068 4:-0.163119 5:-0.401702 6:0.0992283 7:-0.339612 8:0.402081 9:0.199188 10:0.0157169 11:-0.00428714 12:0.370627 13:0.607476 14:-0.464956 15:-0.222758 16:0.417653 17:0.0631936 18:0.723874 19:0.0484449 20:-0.0651149 21:-0.683889 22:-0.138407 23:-0.40046 24:0.186599 25:0.22346 26:0.152258 27:0.178512 28:-0.509893 29:-0.0125 30:-0.293883 31:-0.18668 32:-0.0169835 33:-0.336684 34:0.565335 35:-0.0296635 36:0.10351 37:-0.0359212 38:-0.261232 39:-0.212131 40:-0.0994806 41:-0.46525 42:-0.373601 43:0.156202 44:0.337789 45:0.165251 46:-0.0164307 47:-0.0162345 48:-0.279486 49:-0.597938 50:-0.0834859 51:0.210342 52:0.314371 53:-0.16974 54:-0.437888 55:0.268812 56:0.176214 57:-0.277254 58:-0.412366 59:0.0924125 60:0.11785 61:0.0638181 62:-0.0575951 63:0.31127 64:0.561586 65:0.510601 66:0.244399 67:-0.533306 68:-0.518253 69:-0.3917 70:-0.321383 71:-0.354197 72:-0.352718 73:-0.32078 74:-0.117419 75:-0.0618401 76:-0.0941817 77:0.121387 78:0.165771 79:-0.118732 80:-0.321223 81:-0.426955 82:0.0205539 83:-0.293108 84:-0.259971 85:-0.097622 86:-0.235311 87:-0.0426401 88:-0.456681 89:-0.117043 90:-0.0694184 91:0.0372918 92:-0.197869 93:-0.271622 94:0.690118 95:0.252545 96:-0.387624 97:0.396949 98:-0.307969 99:0.517492 100:-0.154565 101:-0.107594 102:0.175287 103:-0.231968 104:0.0985868 105:0.446272 106:0.156115 107:0.36366 108:0.0569172 109:0.472786 110:0.131199 111:0.386549 112:-0.644976 113:-0.0679012 114:0.433532 115:-0.184884 116:-0.274465 117:-0.196385 118:0.283262 119:-0.271721 120:0.0638062 121:-0.0133717 122:0.373926 123:-0.181496 124:-0.319795 125:-0.205364 126:0.166799 127:-0.0770345 128:0.353551 
0 1 0 0 1 0.8086621250469682 0 0 0 0 0.1570757703472626 1:-0.640177 2:-0.011614 3:0.324138 4:-0.146485 5:-0.30193 6:0.0855949 7:-0.494382 8:0.234068 9:0.350877 10:-0.174173 11:0.263111 12:0.587505 13:0.560409 14:-0.319582 15:-0.176895 16:0.706604 17:-0.0253141 18:0.359928 19:0.216263 20:-0.128891 21:-0.607988 22:-0.0540984 23:-0.324663 24:0.496081 25:-0.140539 26:0.0870469 27:0.0993369 28:-0.346894 29:0.0390244 30:-0.0369504 31:-0.300275 32:0.0247741 33:-0.442314 34:0.62326 35:0.147486 36:0.354881 37:-0.150726 38:-0.161012 39:-0.376372 40:0.187313 41:-0.333992 42:-0.0352808 43:0.108704 44:0.263872 45:0.248231 46:-0.0823602 47:-0.0596669 48:-0.0239205 49:-0.152062 50:-0.328881 51:0.359713 52:0.131814 53:-0.337833 54:-0.144828 55:-0.156837 56:0.172263 57:-0.540125 58:-0.435797 59:0.257539 60:0.0511156 61:0.599724 62:-0.19524 63:0.142606 64:0.328929 65:0.371913 66:0.111203 67:-0.367934 68:-0.308853 69:-0.589032 70:-0.249682 71:-0.190293 72:-0.125564 73:-0.0669238 74:-0.309521 75:-0.260633 76:0.0601367 77:0.407699 78:0.25275 79:0.162808 80:-0.395139 81:-0.705733 82:0.0296246 83:-0.163589 84:-0.287877 85:0.344493 86:-0.369412 87:-0.119425 88:-0.248837 89:-0.216541 90:-0.117495 91:0.128168 92:-0.235027 93:-0.399174 94:0.519573 95:0.1711 96:-0.213068 97:0.46131 98:-0.360715 99:0.558953 100:-0.0579439 101:0.0641522 102:0.00279564 103:-0.166727 104:-0.0770525 105:0.563787 106:-0.124959 107:0.132931 108:-0.0574619 109:0.077973 110:-0.116133 111:0.136209 112:-0.378962 113:-0.0712963 114:-0.0233191 115:-0.152783 116:-0.022647 117:-0.111307 118:0.151826 119:-0.0801744 120:0.189939 121:-0.325242 122:0.494785 123:0.143701 124:-0.406769 125:-0.183688 126:-0.320523 127:0.050391 128:0.443553 
0 0 0 0 0.7479582257474502 0 0 0 0 0 0 1:-0.6734 2:-0.0740452 3:0.284464 4:-0.203992 5:-0.329485 6:0.248875 7:-0.410599 8:0.391218 9:0.0803647 10:-0.238143 11:0.0495513 12:0.553253 13:0.5552 14:-0.140334 15:-0.173507 16:0.445185 17:0.123361 18:0.686818 19:0.248559 20:-0.0342741 21:-0.448511 22:-0.0839578 23:-0.304565 24:0.23957 25:0.0159516 26:0.211973 27:-0.0477594 28:-0.477653 29:-0.0170732 30:-0.339297 31:-0.148436 32:-0.0542225 33:-0.406743 34:0.605748 35:-0.113419 36:0.00859177 37:-0.0819146 38:-0.357053 39:-0.233596 40:-0.0708327 41:-0.452569 42:-0.465989 43:0.214983 44:0.36128 45:0.0730715 46:-0.0114705 47:-0.04786 48:-0.221912 49:-0.186641 50:-0.0597867 51:0.239518 52:-0.252725 53:-0.262759 54:-0.154874 55:0.200861 56:0.357937 57:-0.280032 58:-0.570246 59:0.29572 60:0.153347 61:0.308339 62:-0.554957 63:0.242221 64:0.519113 65:0.447244 66:0.21652 67:-0.594333 68:-0.516112 69:-0.462841 70:-0.360793 71:-0.160854 72:-0.279611 73:-0.31284 74:-0.391641 75:0.244042 76:-0.210548 77:0.234043 78:0.356357 79:0.18757 80:-0.575294 81:-0.309308 82:-0.0622407 83:0.016645 84:-0.241806 85:-0.0068836 86:0.203823 87:-0.11387 88:-0.415466 89:-0.201504 90:0.07106 91:0.0166546 92:-0.307782 93:-0.341363 94:0.524227 95:0.347783 96:-0.398355 97:0.643601 98:-0.246577 99:0.380928 100:0.0136592 101:-0.0995117 102:0.113223 103:-0.193548 104:0.167227 105:0.367715 106:-0.298641 107:0.051914 108:0.111928 109:-0.177956 110:-0.412429 111:0.154212 112:-0.20735 113:-0.101235 114:-0.0958298 115:-0.362454 116:-0.116144 117:0.0491514 118:0.246296 119:-0.653807 120:0.0294063 121:-0.149146 122:0.278221 123:0.24252 124:-0.554051 125:-0.195445 126:-0.253962 127:-0.110339 128:0.279593 
1 0 0 0.7421351447616192 0 0 0 0 0 0 0 1:-0.681372 2:0.0218509 3:0.0775192 4:-0.0896561 5:-0.174349 6:0.215498 7:-0.406378 8:0.316523 9:0.260323 10:-0.385938 11:0.303091 12:0.755828 13:0.43758 14:-0.20185 15:-0.107318 16:0.637341 17:0.0876823 18:0.570922 19:0.333091 20:-0.424847 21:-0.683036 22:0.163466 23:-0.0279146 24:0.328951 25:0.0878713 26:0.192513 27:-0.0557974 28:-0.42701 29:0.0625 30:-0.00818826 31:-0.00891266 32:-0.0436273 33:-0.183885 34:0.586589 35:0.142501 36:8.18264e-005 37:0.0145289 38:-0.338203 39:-0.321733 40:0.0440737 41:-0.431159 42:-0.164738 43:0.224121 44:0.606116 45:0.503539 46:-0.220006 47:0.0605102 48:-0.228539 49:-0.370704 50:-0.418076 51:0.389064 52:0.0257681 53:-0.2351 54:-0.147382 55:-0.0640029 56:0.424057 57:-0.478028 58:-0.49828 59:0.552772 60:0.375254 61:0.508477 62:-0.301448 63:0.334799 64:0.308164 65:0.219257 66:-0.0312855 67:-0.0878627 68:-0.308853 69:-0.505611 70:-0.278668 71:-0.623923 72:0.231901 73:-0.0186025 74:-0.171677 75:-0.214178 76:-0.137156 77:0.304391 78:0.368381 79:0.234122 80:-0.431471 81:-0.352494 82:-0.127087 83:0.121196 84:-0.21627 85:0.279725 86:-0.183582 87:-0.259271 88:-0.0686904 89:-0.152632 90:-0.141182 91:0.125634 92:-0.184617 93:-0.382198 94:0.450862 95:0.226601 96:-0.205914 97:0.517857 98:-0.300476 99:0.400363 100:0.0521927 101:0.225796 102:0.0424937 103:-0.00181225 104:0.0962315 105:0.543989 106:0.033477 107:0.191662 108:0.319989 109:-0.0940113 110:-0.0442561 111:0.0720109 112:-0.584626 113:-0.209568 114:0.0611064 115:-0.0292564 116:-0.40536 117:0.115715 118:0.30908 119:-0.347534 120:-0.230627 121:-0.26188 122:0.222699 123:0.105512 124:-0.377641 125:0.107641 126:-0.31141 127:-0.234289 128:0.541773 
1 1 0.8612136134572227 0.895969694356326 0.493611755317558 1 1 1 0.4574079503350414 1 1 1:-0.501315 2:0.33419 3:0.360302 4:-0.255457 5:-0.298812 6:-0.312669 7:-0.184841 8:0.284923 9:0.476825 10:-0.347151 11:-0.591625 12:0.755905 13:0.269055 14:-0.255988 15:-0.194962 16:0.671471 17:-0.471155 18:0.227206 19:0.936861 20:-0.231888 21:-0.582404 22:-0.0515222 23:-0.231133 24:0.61871 25:0.0891089 26:0.470885 27:0.472704 28:-0.0951986 29:0.19314 30:0.175944 31:-0.300275 32:0.63727 33:-0.0682029 34:0.212842 35:0.141005 36:0.714099 37:-0.0728229 38:-0.56896 39:-0.649728 40:0.494727 41:-0.502635 42:-0.0909775 43:0.309415 44:-0.246659 45:-0.323956 46:-0.562054 47:-0.563567 48:-0.20203 49:-0.216065 50:-0.09749 51:0.297519 52:0.422002 53:-0.350346 54:-0.0392507 55:0.156358 56:0.0439755 57:0.156235 58:-0.779637 59:0.343142 60:0.0456389 61:0.116196 62:-0.13888 63:-0.102804 64:0.265455 65:0.731105 66:0.7111 67:0.187577 68:-0.0600578 69:-0.449926 70:0.0790745 71:0.0242673 72:0.0550676 73:0.355036 74:-0.316016 75:-0.248265 76:-0.32245 77:0.231091 78:0.330263 79:0.236103 80:-0.257078 81:-0.885034 82:0.0971726 83:-0.829129 84:-0.546137 85:-0.0140801 86:0.136351 87:-0.235746 88:-0.460669 89:-0.376441 90:-0.00375235 91:0.287473 92:-0.070547 93:-0.472127 94:0.431974 95:-0.372085 96:-0.629188 97:-0.287574 98:-0.416342 99:0.70666 100:-0.766499 101:0.450413 102:0.619514 103:0.0605292 104:0.0188425 105:0.334185 106:-0.0550215 107:-0.134242 108:-0.0514706 109:-0.00494796 110:-0.110169 111:-0.0560462 112:-0.752192 113:-0.616049 114:0.196936 115:-0.32629 116:-0.208394 117:-0.309676 118:0.221358 119:-0.373365 120:0.886074 121:-0.516149 122:0.302454 123:-0.197638 124:0.0457436 125:-0.390889 126:-0.0832013 127:-0.013901 128:-0.355899 
0 1 1 0 1 0 0 0.7634310790238266 0 1 0 1:-0.456739 2:0.0517352 3:0.289387 4:-0.090403 5:-0.0457571 6:0.348875 7:-0.251023 8:0.455757 9:0.0819735 10:-0.545588 11:0.175274 12:0.98098 13:0.477792 14:0.128176 15:-0.137199 16:0.867068 17:0.0169678 18:0.57839 19:0.25749 20:-0.271109 21:-0.273968 22:-0.0181499 23:-0.14509 24:0.0022756 25:0.0170517 26:-0.179144 27:-0.202224 28:-0.1392 29:0.196494 30:-0.586596 31:0.0414844 32:0.0542225 33:-0.393752 34:0.804371 35:-0.131034 36:0.208412 37:-0.357875 38:-0.453032 39:-0.251972 40:0.120573 41:-0.0872859 42:0.148556 43:0.0191234 44:0.266707 45:0.351026 46:0.112328 47:0.0560826 48:-0.0817024 49:-0.18793 50:0.272218 51:0.460517 52:0.0424182 53:0.000987817 54:0.102427 55:0.00251226 56:0.412205 57:-0.253249 58:-0.217108 59:0.48857 60:-0.0730223 61:0.546795 62:-0.402717 63:0.140847 64:0.358188 65:0.223497 66:-0.400516 67:-0.402261 68:-0.349534 69:-0.881431 70:-0.534198 71:-0.385227 72:0.0159032 73:-0.288113 74:-0.208547 75:0.106184 76:-0.0690666 77:-0.142541 78:0.427475 79:0.202427 80:-0.331496 81:-0.503797 82:-0.173984 83:0.0949285 84:-0.138871 85:0.680538 86:0.160529 87:-0.293253 88:-0.110126 89:-0.245363 90:-0.325985 91:0.300869 92:-0.388853 93:-0.200275 94:0.300575 95:0.187521 96:0.269822 97:0.322173 98:-0.21199 99:0.615963 100:0.0300503 101:0.167873 102:0.124685 103:0.151142 104:-0.318641 105:0.862047 106:0.170699 107:0.167278 108:0.14488 109:0.00801911 110:-0.144382 111:-0.169158 112:-0.170937 113:-0.253395 114:-0.0314894 115:-0.459163 116:-0.604405 117:-0.135111 118:-0.0036673 119:-0.510567 120:-0.127427 121:-0.381197 122:-0.134356 123:0.0559055 124:-0.516308 125:0.0661278 126:-0.00911252 127:-0.440197 128:0.0217179 
1 0 0 0 0 0 0 0 0 0.5938593035985572 0 1:-0.683793 2:-0.0162046 3:0.0244425 4:-0.231626 5:-0.310525 6:0.245788 7:-0.334351 8:0.354047 9:0.175132 10:-0.584926 11:0.257827 12:0.814899 13:0.442698 14:-0.0381878 15:-0.0449511 16:0.644511 17:0.066954 18:0.706575 19:0.387196 20:-0.345127 21:-0.594769 22:0.0127635 23:-0.0846634 24:0.0864728 25:0.0286029 26:0.437017 27:-0.187621 28:-0.337484 29:0.128659 30:-0.305856 31:-0.139848 32:-0.213151 33:-0.461491 34:0.671307 35:-0.028334 36:-0.0180836 37:-0.0462608 38:-0.383286 39:-0.168225 40:-0.15111 41:-0.455369 42:-0.275379 43:-0.031421 44:0.315917 45:0.223992 46:-0.177844 47:0.315412 48:-0.127265 49:-0.149485 50:0.0240224 51:0.483927 52:-0.049554 53:-0.249095 54:-0.163729 55:0.149181 56:0.225907 57:-0.347089 58:-0.600744 59:0.197957 60:0.30426 61:0.169952 62:-0.421354 63:0.0786146 64:0.58353 65:0.20454 66:0.0682499 67:-0.623485 68:-0.493844 69:-0.506458 70:-0.299517 71:-0.470627 72:-0.282696 73:0.0657895 74:-0.147376 75:-0.159578 76:-0.165899 77:0.182142 78:0.339217 79:0.197227 80:-0.709346 81:-0.305436 82:-0.236708 83:0.221847 84:-0.298934 85:0.132979 86:0.214225 87:-0.0285901 88:-0.13871 89:0.0300752 90:-0.162523 91:0.140478 92:-0.0874367 93:-0.266804 94:0.155489 95:0.072578 96:-0.215214 97:0.611235 98:-0.155786 99:0.484063 100:0.216966 101:0.0978279 102:0.0410959 103:0.0641537 104:-0.167564 105:0.479483 106:0.165396 107:0.252229 108:0.232843 109:-0.199454 110:-0.105775 111:0.106318 112:-0.193527 113:-0.132716 114:-0.240851 115:-0.271841 116:-0.291087 117:0.439277 118:0.0802406 119:-0.375377 120:0.0667653 121:-0.451965 122:0.246626 123:0.153937 124:-0.485949 125:-0.173035 126:-0.313788 127:-0.0338836 128:0.0397183 
1 0.3799856383147359 0 0.8507412032290685 1 0.6667361033553355 1 0.4216315201661539 1 0 0.9088929519615773 1:-0.664928 2:0.0715663 3:-0.0371634 4:-0.0959025 5:-0.396899 6:0.161994 7:-0.596999 8:0.198519 9:0.385199 10:-0.181526 11:0.352941 12:0.468821 13:0.332937 14:-0.282174 15:-0.067101 16:0.906503 17:0.00284325 18:0.250555 19:0.490939 20:-0.0371836 21:-0.581977 22:-0.0343091 23:-0.65491 24:0.360683 25:0.302393 26:0.544415 27:-0.12613 28:-0.47198 29:0.0329268 30:0.192046 31:0.0126398 32:-0.278903 33:0.11893 34:0.276306 35:0.180889 36:-0.155225 37:0.115964 38:-0.252435 39:0.138467 40:-0.13773 41:-0.42276 42:0.0360335 43:0.0969707 44:0.722357 45:0.326256 46:0.221453 47:0.0126502 48:-0.484726 49:0.269545 50:-0.552946 51:-0.146925 52:0.161744 53:-0.385084 54:-0.194721 55:0.615504 56:0.103649 57:0.0177562 58:-0.717527 59:0.0301556 60:-0.433874 61:0.252378 62:-0.363197 63:0.361407 64:0.420953 65:0.65353 66:0.306557 67:-0.476093 68:-0.259822 69:-0.175101 70:0.188152 71:-0.0815542 72:-0.561358 73:-0.189201 74:-0.316225 75:0.518552 76:0.147482 77:0.0399705 78:0.0798158 79:0.491891 80:-0.761714 81:-0.411169 82:0.18016 83:-0.218205 84:-0.144662 85:0.403942 86:0.114703 87:0.0661657 88:-0.119211 89:0.225063 90:-0.435976 91:-0.0474294 92:-0.583734 93:-0.306722 94:0.539009 95:0.518227 96:-0.221653 97:0.140997 98:-0.308834 99:0.939881 100:0.183896 101:0.0382219 102:0.262231 103:0.0627039 104:-0.238223 105:0.103624 106:-1 107:0.0595176 108:-0.208606 109:0.186487 110:-0.404269 111:0.205842 112:-0.187458 113:-0.0641975 114:0.28 115:-0.613165 116:-0.0135051 117:0.160679 118:0.356608 119:0.075478 120:0.266506 121:-0.537132 122:0.369632 123:-0.208268 124:-0.682051 125:0.281043 126:-0.388273 127:0.156386 128:-0.11172 
0 0 0 0 0 0 0 0 0 0 0.2756089540838657 1:-0.56893 2:0.127571 3:0.58801 4:-0.14662 5:-0.326957 6:0.178714 7:-0.371111 8:0.445107 9:0.144564 10:-0.408272 11:0.0394816 12:0.289829 13:0.594133 14:-0.377669 15:-0.120955 16:0.491504 17:-0.0397138 18:0.475067 19:0.220832 20:-0.110038 21:-0.330538 22:-0.032904 23:-0.561117 24:0.0212389 25:-0.207096 26:0.0120321 27:0.154665 28:-0.5586 29:0.183079 30:-0.336957 31:-0.141306 32:-0.126987 33:-0.0706774 34:0.322107 35:-0.0363108 36:0.0732346 37:0.021838 38:-0.39711 39:-0.179771 40:-0.0413978 41:-0.569829 42:-0.660551 43:0.0656061 44:0.391454 45:0.0723638 46:-0.224346 47:0.343032 48:0.333333 49:-0.388746 50:0.123128 51:0.27079 52:0.367096 53:-0.386072 54:-0.564921 55:-0.120947 56:-0.0258863 57:-0.443309 58:-0.940679 59:0.593385 60:0.225152 61:0.173535 62:-0.464242 63:0.126113 64:-0.0934403 65:0.288351 66:0.0550336 67:-0.389729 68:-0.628091 69:-0.69405 70:-0.397661 71:0.0356717 72:-0.453121 73:-0.240472 74:-0.239552 75:-0.193062 76:-0.0657179 77:0.432788 78:0.0700947 79:-0.138789 80:-0.279629 81:-0.207446 82:-0.00530734 83:-0.327958 84:-0.479531 85:-0.0566333 86:0.587293 87:0.0328378 88:-0.639708 89:-0.181704 90:0.0924015 91:-0.0354815 92:0.00714564 93:-0.607708 94:0.593211 95:0.420033 96:-0.307261 97:0.46875 98:-0.465629 99:0.515159 100:0.220705 101:-0.147668 102:0.199609 103:-0.0739398 104:0.212651 105:-0.0981958 106:-0.2118 107:0.295228 108:0.0552832 109:0.184098 110:0.170119 111:0.424592 112:-0.165543 113:-0.0145062 114:0.346043 115:0.165786 116:0.03262 117:-0.258541 118:0.402376 119:-0.294867 120:0.130756 121:-0.596379 122:0.295092 123:0.046063 124:-0.185231 125:-0.124541 126:-0.578447 127:-0.126557 128:0.537468 
1 1 0 0 0 0 1 0 0 0.7830889096826021 1 1:-0.738053 2:0.0371833 3:-0.174315 4:-0.151848 5:-0.357462 6:0.310611 7:-0.363837 8:0.425287 9:0.355474 10:-0.417004 11:0.195115 12:0.677118 13:0.532352 14:-0.0992882 15:-0.136069 16:0.568079 17:-0.113455 18:0.621307 19:0.47287 20:-0.095723 21:-0.723118 22:-0.0437939 23:-0.267258 24:0.177118 25:0.161166 26:0.301396 27:-0.0598165 28:-0.583091 29:-0.0882622 30:-0.176082 31:-0.148112 32:-0.318791 33:-0.469997 34:0.66966 35:0.247528 36:-0.174208 37:-0.0721098 38:-0.216305 39:-0.0672412 40:-0.0936565 41:-0.402997 42:-0.388654 43:0.0394314 44:0.467801 45:0.283793 46:-0.341118 47:0.232132 48:0.123744 49:-0.324098 50:0.0261769 51:-0.0455975 52:0.226165 53:-0.268851 54:-0.175649 55:0.255653 56:0.351492 57:-0.378633 58:-0.726825 59:0.303259 60:0.166937 61:0.0213646 62:-0.461996 63:0.496647 64:0.313119 65:0.733101 66:0.249355 67:-0.0543523 68:-0.280163 69:-0.359941 70:-0.00483092 71:0.038589 72:-0.163541 73:-0.0585299 74:-0.243323 75:-0.188537 76:0.320218 77:0.343008 78:0.26375 79:0.412901 80:-0.606615 81:-0.715562 82:0.00550034 83:0.207282 84:0.0704225 85:-0.119837 86:0.203823 87:0.147852 88:0.027033 89:-0.00175439 90:-0.0295497 91:0.216148 92:-0.232428 93:-0.255563 94:0.425678 95:0.299507 96:-0.609634 97:0.869792 98:-0.174233 99:0.564913 100:-0.200288 101:0.0863782 102:0.00838692 103:0.230518 104:0.394011 105:0.570813 106:-0.0762347 107:0.0621395 108:-0.146514 109:0.178638 110:0.190835 111:-0.161685 112:-0.363452 113:-0.428704 114:0.169021 115:0.137749 116:-0.501766 117:-0.259863 118:0.199355 119:-0.290507 120:0.137784 121:0.35898 122:0.300613 123:0.0787402 124:-0.251282 125:0.163115 126:-0.00911252 127:0.013901 128:0.270984 
0 0 0 0 0 0 0 0.4386421238677388 0 0 0 1:-0.717392 2:0.211807 3:0.13854 4:-0.125912 5:-0.369596 6:0.0244373 7:-0.36085 8:0.428954 9:0.477515 10:-0.654596 11:0.12014 12:0.598253 13:0.562694 14:-0.091287 15:-0.261933 16:0.753639 17:-0.204714 18:0.620646 19:0.213355 20:-0.0616235 21:-0.369483 22:-0.0257611 23:-0.347915 24:-0.0381795 25:0.0255776 26:0.210636 27:0.29091 28:-0.545039 29:0.121037 30:-0.249708 31:-0.631826 32:-0.460268 33:-0.272657 34:0.388265 35:0.0482759 36:0.100565 37:0.0813798 38:-0.334276 39:-0.21083 40:-0.0176295 41:-0.567029 42:-0.51924 43:-0.0519546 44:0.370393 45:0.0716561 46:-0.688333 47:0.208939 48:0.0574713 49:-0.349656 50:0.0961973 51:0.15566 52:0.632507 53:-0.184063 54:-0.384759 55:-0.287235 56:0.110718 57:-0.381609 58:-0.977499 59:0.149076 60:0.247465 61:0.525569 62:-0.530033 63:0.256515 64:0.0497876 65:0.242205 66:0.0383067 67:-0.423512 68:-0.52853 69:-0.641753 70:-0.337656 71:-0.512001 72:-0.252552 73:0.157214 74:-0.28962 75:-0.32368 76:-0.046742 77:0.499201 78:0.106165 79:-0.0308283 80:-0.283388 81:-0.430231 82:-0.257165 83:-0.221847 84:-0.542451 85:-0.0882353 86:0.19061 87:0.252736 88:-0.355196 89:-0.191479 90:0.25985 91:0.155684 92:-0.218657 93:-0.516862 94:0.282508 95:0.392775 96:-0.334923 97:0.485119 98:-0.843205 99:0.553252 100:0.252336 101:-0.188752 102:-0.166341 103:-0.0543675 104:0.242261 105:0.040396 106:-0.471992 107:0.0238595 108:-0.0315904 109:0.267361 110:0.131199 111:0.234715 112:0.0037087 113:0.13642 114:0.122723 115:0.32629 116:0.0899647 117:0.128058 118:0.295291 119:-0.657833 120:-0.171444 121:-0.126517 122:0.492331 123:-0.0283465 124:-0.184 125:-0.0826598 126:-0.301902 127:-0.0498118 128:0.234983 
0 0 0 0 0 0 0 0 0 0 0.8627674945221096 1:-0.655829 2:0.152681 3:0.160716 4:-0.211461 5:-0.370186 6:0.221994 7:-0.262908 8:0.492999 9:0.226615 10:-0.592923 11:0.278365 12:0.714153 13:0.579419 14:0.00452018 15:-0.0782193 16:0.795798 17:-0.0897001 18:0.55523 19:0.315852 20:-0.219668 21:-0.491578 22:0.0578454 23:-0.302332 24:-0.0940582 25:-0.175743 26:-0.0864528 27:0.041195 28:-0.400858 29:0.122256 30:-0.397784 31:-0.304651 32:-0.0827361 33:-0.50464 34:0.625505 35:-0.0859992 36:0.115948 37:-0.155718 38:-0.425071 39:-0.184487 40:-0.24335 41:-0.211627 42:-0.255998 43:0.0423648 44:0.475901 45:0.0935952 46:0.000103338 47:0.306135 48:0.369369 49:-0.11104 50:0.0694818 51:0.250349 52:0.273736 53:-0.28515 54:-0.237463 55:-0.21426 56:0.385383 57:-0.461561 58:-0.788006 59:0.388132 60:0.24645 61:0.127774 62:-0.468732 63:0.221111 64:0.205521 65:0.0798204 66:-0.00671141 67:-0.0780548 68:-0.510117 69:-0.633496 70:-0.241546 71:-0.161119 72:-0.306432 73:-0.0381125 74:-0.227401 75:-0.0618401 76:0.0796707 77:0.373509 78:0.269634 79:0.376749 80:-0.267352 81:-0.834698 82:-0.200811 83:0.168791 84:-0.537449 85:0.106383 86:0.534439 87:-0.0504819 88:-0.259251 89:-0.239348 90:0.193949 91:0.0713251 92:-0.345199 93:-0.259234 94:0.474952 95:0.444992 96:-0.186837 97:0.643601 98:-0.115723 99:0.488728 100:-0.243134 101:0.123758 102:0.183953 103:-0.185212 104:0.125841 105:0.445633 106:0.0752403 107:0.203461 108:0.138344 109:0.268043 110:0.416824 111:0.0512908 112:-0.49764 113:-0.0635802 114:0.191489 115:0.237708 116:-0.259921 117:-0.0531188 118:0.254217 119:-0.502516 120:0.238025 121:-0.00884592 122:0.219018 123:-0.190551 124:-0.343179 125:-0.107274 126:0.271791 127:-0.18216 128:0.270984 
0 0.9874802133664924 1 1 1 0 0.428539236196414 1 1 1 0.5432554788922368 1:0.263742 2:0.109943 3:0.597027 4:0.0468819 5:-0.520266 6:0.783923 7:0.643762 8:-0.12347 9:0.172681 10:0.0435662 11:-0.246859 12:0.223953 13:0.467282 14:-0.329142 15:-0.31405 16:0.485051 17:0.190406 18:-0.0274614 19:0.153019 20:-0.0938609 21:0.714448 22:-0.078103 23:-0.804926 24:-0.0819216 25:-0.355061 26:-0.842543 27:0.14301 28:0.69863 29:-0.0724085 30:-0.366545 31:-0.362502 32:0.431599 33:-0.888184 34:0.267325 35:0.0294973 36:-0.144424 37:0.177823 38:-0.409362 39:0.361574 40:-0.11711 41:-0.146245 42:-0.263524 43:-0.0511649 44:0.151681 45:0.0359165 46:-0.16193 47:0.604891 48:0.440406 49:-0.0266323 50:0.565658 51:0.223096 52:-0.386918 53:-0.42542 54:0.580077 55:-0.119512 56:0.215303 57:-0.0697351 58:0.0532775 59:0.000486381 60:0.614402 61:-0.131909 62:0.0250365 63:-0.0192413 64:1 65:-0.116488 66:-0.366856 67:-0.183762 68:-0.275024 69:-0.610205 70:-0.675566 71:0.169076 72:0.919297 73:-0.550136 74:-0.215041 75:-0.510407 76:-0.597321 77:-0.326036 78:-0.0660015 79:0.453015 80:-0.250814 81:-0.241996 82:-0.128824 83:0.242133 84:0.196788 85:0.247184 86:0.165027 87:0.401732 88:0.100598 89:-0.813784 90:-0.257974 91:0.409124 92:-0.698584 93:-0.326222 94:0.997536 95:0.355665 96:0.216406 97:0.31622 98:-0.455829 99:0.584348 100:-0.0326384 101:-0.708368 102:0.738049 103:0.310257 104:1 105:0.0614721 106:0.459728 107:0.0440482 108:0.406863 109:0.187511 110:0.464218 111:0.567595 112:-0.20971 113:0.106481 114:-0.216681 115:0.300691 116:-0.375857 117:-0.045184 118:0.276515 119:0.0694398 120:-0.149991 121:-0.154906 122:0.354908 123:-0.555906 124:-0.43959 125:-0.229978 126:-0.0186212 127:0.242108 128:0.456466 
0 0 0.2307263178620868 0 1 0 0 0 1 0.2107135598492294 0.01721611945048305 1:0.0757544 2:0.245088 3:0.522749 4:0.0197237 5:-0.434819 6:0.659421 7:0.362213 8:-0.202962 9:0.484869 10:-0.271967 11:0.193021 12:0.54065 13:0.44873 14:-0.0321609 15:-0.286688 16:0.416362 17:-0.251674 18:0.0883396 19:0.538398 20:-0.657143 21:0.469263 22:0.0381733 23:-0.781018 24:-0.214665 25:-0.379125 26:-0.968806 27:0.477125 28:0.40072 29:0.135061 30:-0.414849 31:-0.205153 32:0.473512 33:-0.810857 34:0.390061 35:-0.189697 36:0.0743802 37:-0.157322 38:-0.318882 39:0.233759 40:0.0691012 41:-0.0597826 42:-0.301157 43:-0.0991143 44:0.349939 45:0.0559094 46:-0.269402 47:0.340923 48:0.296469 49:-0.195447 50:0.515889 51:0.254542 52:-0.193261 53:-0.224728 54:0.314091 55:-0.346333 56:0.328413 57:-0.00902688 58:-0.216922 59:0.560554 60:0.411968 61:0.182908 62:-0.105198 63:0.100605 64:0.74705 65:-0.0511349 66:-0.509551 67:-0.0186623 68:-0.0881062 69:-0.191827 70:-0.343758 71:-0.0958759 72:0.528127 73:-0.438294 74:-0.170001 75:-0.160483 76:-0.199665 77:-0.153118 78:0.0787925 79:0.722174 80:-0.218492 81:-0.172301 82:-0.0630126 83:0.290247 84:-0.129656 85:0.314456 86:0.375597 87:-0.326581 88:-0.120541 89:-0.276441 90:-0.0675422 91:0.317161 92:-0.652332 93:0.197293 94:0.706543 95:0.673892 96:0.0807202 97:0.385045 98:-0.175962 99:0.408655 100:0.0737599 101:-0.236235 102:0.529774 103:-0.0275462 104:0.414536 105:0.092767 106:0.733179 107:0.03828 108:0.540577 109:0.133595 110:0.774953 111:0.331522 112:-0.177006 113:-0.0944444 114:0.123404 115:0.317757 116:-0.5508 117:0.299096 118:0.148012 119:0.103321 120:0.309784 121:-0.597202 122:0.291718 123:-0.388189 124:0.182769 125:0.0360029 126:0.152139 127:-0.0631335 128:-0.0275876 
0 0 0 0 0 1 0.1032349881295366 0 0 0 0.4067184685126858 1:-0.199549 2:0.104159 3:0.586841 4:-0.124419 5:-0.304795 6:0.37582 7:-0.079496 8:0.351014 9:0.167931 10:-0.257077 11:0.00667996 12:0.394286 13:0.515445 14:-0.34317 15:-0.00864278 16:0.526637 17:0.115381 18:0.639174 19:0.145542 20:0.0693046 21:-0.178879 22:0.132084 23:-0.428046 24:0.0461441 25:-0.253713 26:-0.167855 27:-0.452743 28:0.0817767 29:0.384756 30:-0.718572 31:-0.283098 32:0.49517 33:-0.390813 34:0.375842 35:0.132364 36:0.334915 37:-0.126304 38:-0.263117 39:-0.324335 40:0.0321108 41:-0.0879447 42:-0.284599 43:0.0774525 44:0.299311 45:0.0935952 46:-0.110675 47:-0.54902 48:-0.0752822 49:-0.148625 50:0.125929 51:0.337701 52:-0.40773 53:-0.542805 54:0.495615 55:-0.127647 56:0.53072 57:-0.521873 58:-0.502557 59:0.888619 60:0.231846 61:0.322398 62:-0.24666 63:-0.349313 64:-0.0797546 65:0.220753 66:-0.294579 67:-0.499796 68:-0.215287 69:-1 70:-0.582507 71:-0.140432 72:0.1061 73:-0.695554 74:-0.507699 75:0.0473605 76:-0.257151 77:0.0726848 78:0.365311 79:0.0919896 80:0.0385868 81:0.0308265 82:0.0442922 83:-0.171912 84:0.0801632 85:0.408323 86:-0.139162 87:0.256984 88:-0.219588 89:0.155138 90:-0.0644934 91:0.437726 92:-0.335325 93:-0.300069 94:0.758555 95:0.687028 96:-0.0516275 97:-0.234747 98:-0.4688 99:0.498575 100:-0.426024 101:0.1672 102:0.342745 103:0.49112 104:0.220054 105:1 106:0.241962 107:0.223125 108:0.323802 109:0.292953 110:-0.182046 111:0.3125 112:-0.148011 113:-0.365432 114:-0.0675745 115:0.0186916 116:-0.62352 117:-0.191095 118:0.0687986 119:0.060047 120:0.211763 121:-0.725982 122:0.275153 123:-0.111024 124:-0.366974 125:-0.401176 126:0.0396197 127:-0.1755 128:0.0514576 
0 1 0 1 0 0 1 1 0.8192501960846078 0 0 1:-0.23582 2:0.0313992 3:0.410308 4:-0.0197237 5:-0.225752 6:0.201608 7:-0.221407 8:0.143008 9:0.376082 10:-0.622426 11:0.114556 12:0.694901 13:0.462621 14:-0.226789 15:-0.0949837 16:0.227504 17:-0.107952 18:0.421752 19:0.219378 20:-0.202211 21:-0.323289 22:0.338759 23:-0.391002 24:0.270164 25:-0.579483 26:0.20915 27:-0.208386 28:-0.0124533 29:0.313262 30:-0.462327 31:-0.33706 32:0.617794 33:-0.245438 34:0.522676 35:-0.261155 36:0.638491 37:-0.374632 38:-0.413446 39:-0.410684 40:-0.355737 41:0.0214097 42:-0.578888 43:-0.102048 44:0.467396 45:-0.0164544 46:-0.219593 47:-0.531098 48:-0.27783 49:0.142826 50:0.164279 51:0.231307 52:-0.324083 53:-0.695752 54:0.38527 55:0.0369661 56:0.445473 57:-0.180042 58:-0.715295 59:0.48857 60:0.161055 61:0.184287 62:-0.681374 63:-0.468279 64:-0.0370458 65:0.158892 66:-0.119257 67:-0.368751 68:-0.0163794 69:-0.679229 70:-0.519451 71:0.107545 72:-0.020413 73:-0.444192 74:-0.329213 75:-0.295023 76:-0.328868 77:0.319641 78:0.338706 79:-0.0672279 80:0.359058 81:-0.243783 82:-0.163177 83:-0.170871 84:-0.277346 85:0.800375 86:-0.221254 87:-0.254697 88:-0.280523 89:-0.0942356 90:0.00187617 91:0.477552 92:-0.29505 93:-0.443909 94:0.2513 95:0.331691 96:0.038512 97:0.186384 98:-0.494452 99:0.476289 100:-0.168943 101:0.384408 102:0.209673 103:0.170714 104:-0.126851 105:0.83171 106:0.261518 107:0.0783954 108:0.397331 109:0.306603 110:-0.0825487 111:0.383832 112:-0.159474 113:-0.11358 114:-0.361362 115:-0.0682649 116:-0.244546 117:-0.238263 118:-0.0990172 119:-0.120429 120:0.115591 121:-0.61366 122:0.253681 123:-0.124016 124:-0.517949 125:-0.385746 126:-0.20206 127:-0.16044 128:0.101154 
1 1 1 1 1 0 0 1 1 0 0.8073143132301475 1:-0.685004 2:0.0505417 3:0.0449129 4:-0.14567 5:-0.224488 6:0.170032 7:-0.510814 8:0.187233 9:0.321689 10:-0.504228 11:0.638285 12:0.689257 13:0.344727 14:-0.031953 15:-0.205993 16:0.684807 17:0.0932771 18:0.311812 19:0.277221 20:-0.226418 21:-0.379291 22:-0.0151054 23:-0.243087 24:0.197598 25:-0.273652 26:0.320856 27:-0.133499 28:-0.313408 29:0.13186 30:0.152549 31:-0.0931778 32:-0.125584 33:-0.338231 34:0.453226 35:-0.107603 36:0.0324851 37:-0.165879 38:-0.376689 39:-0.127571 40:-0.0343145 41:-0.356555 42:0.116192 43:0.040334 44:0.513771 45:0.42799 46:-0.0707864 47:0.267341 48:-0.169307 49:0.0968643 50:0.136486 51:0.280049 52:0.444995 53:-0.242344 54:-0.133078 55:-0.389401 56:0.0853519 57:-0.574645 58:-0.516132 59:0.3643 60:-0.421704 61:0.399862 62:-0.583474 63:0.0788345 64:0.402076 65:0.503866 66:-0.0370676 67:-0.907914 68:-0.301145 69:-0.494389 70:-0.339944 71:-0.0982628 72:-0.466888 73:0.362296 74:-0.146748 75:-0.393967 76:0.0944607 77:0.0719469 78:0.377334 79:0.369568 80:-0.940115 81:-0.548176 82:0.154685 83:0.141482 84:-0.482691 85:0.157071 86:-0.182176 87:0.243261 88:-0.0549524 89:0.353634 90:-0.127814 91:0.0083273 92:-0.0931532 93:-0.370268 94:0.488366 95:-0.233826 96:-0.00560391 97:0.415551 98:-0.214296 99:0.495983 100:-0.103091 101:0.0085873 102:0.1669 103:0.232693 104:-0.246972 105:0.117037 106:0.313225 107:0.0409019 108:0.10049 109:0.0339533 110:-0.0838041 111:-0.0411005 112:-0.406945 113:-0.357407 114:-0.133617 115:-0.0373832 116:-0.112819 117:0.363015 118:-0.105178 119:-0.210332 120:0.428519 121:-0.271755 122:0.397546 123:0.0377953 124:-0.348923 125:0.116458 126:-0.408082 127:0.237475 128:0.363334 
0 0 0 0 1 0 0 0 0 0 1 1:-0.461121 2:0.0672512 3:0.383989 4:-0.203381 5:-0.241257 6:0.186367 7:-0.395726 8:0.23964 9:0.254884 10:-0.482629 11:0.510668 12:0.604979 13:0.464997 14:-0.142516 15:-0.0861238 16:0.543701 17:-0.135926 18:0.372123 19:0.245963 20:-0.0189118 21:-0.298557 22:0.108899 23:-0.562167 24:0.156384 25:-0.580583 26:-0.157457 27:-0.156139 28:-0.256261 29:0.241768 30:0.0355742 31:-0.198185 32:0.274073 33:-0.26446 34:0.585391 35:-0.297549 36:0.128058 37:-0.531153 38:-0.47738 39:0.0859419 40:-0.268692 41:-0.205204 42:-0.261078 43:0.031421 44:0.36533 45:0.0820948 46:-0.350419 47:0.149905 48:-0.0166718 49:0.0594931 50:0.149413 51:0.377358 52:0.0237859 53:-0.255351 54:0.256024 55:-0.282211 56:0.259798 57:-0.356215 58:-0.716225 59:0.18677 60:-0.123935 61:0.421089 62:-0.598967 63:-0.130291 64:0.229589 65:0.431529 66:-0.0926174 67:-0.657267 68:-0.168611 69:-0.8899 70:-0.501653 71:0.220793 72:-0.043437 73:-0.0993648 74:-0.268252 75:-0.342986 76:-0.147761 77:0.0495634 78:0.0903044 79:0.483472 80:-0.308945 81:-0.559494 82:0.0226768 83:-0.137581 84:-0.569304 85:0.256258 86:-0.0618499 87:0.179873 88:-0.35852 89:0.0614035 90:0.0607411 91:-0.0296886 92:-0.0068858 93:-0.247075 94:0.426773 95:0.129392 96:-0.018481 97:0.622768 98:-0.151463 99:0.548329 100:0.113444 101:0.368581 102:-0.00251607 103:-0.0511055 104:-0.0380215 105:0.301613 106:-0.092476 107:0.0283167 108:0.254357 109:-0.0175738 110:-0.0213434 111:0.110734 112:-0.257249 113:-0.176235 114:-0.283745 115:-0.0975213 116:0.0858093 117:0.0720741 118:-0.205222 119:0.304596 120:0.386351 121:-0.0413495 122:0.160429 123:0.0248031 124:-0.439179 125:-0.0301249 126:-0.29794 127:-0.108312 128:0.34142 
0.5368634697234967 0.1207764663417958 1 1 0.830258703898984 0 0.3504349353116266 1 1 0.7129906128450348 0.04456445820441815 1:-0.661839 2:0.15998 3:-0.124357 4:-0.341073 5:-0.221623 6:0.158457 7:-0.246931 8:0.310104 9:0.253198 10:-0.563143 11:0.57348 12:0.762245 13:0.231676 14:0.292981 15:0.136504 16:0.472001 17:0.0792442 18:0.412015 19:-0.143569 20:-0.45499 21:-0.644801 22:0.205972 23:-0.0755993 24:-0.28445 25:-0.498625 26:0.0999703 27:-0.115145 28:-0.0705687 29:0.229573 30:0.0765843 31:0.423432 32:-0.465098 33:0.274049 34:0.56743 35:-0.343914 36:-0.540463 37:-0.564667 38:-0.42727 39:0.351167 40:-0.568393 41:-0.211627 42:-0.408411 43:-0.0381903 44:0.398542 45:0.132519 46:0.14767 47:0.677841 48:-0.199751 49:-0.402921 50:0.570613 51:0.451433 52:0.0352825 53:0.0762265 54:0.272371 55:-0.190573 56:0.433413 57:-0.261184 58:-0.0995816 59:0.394698 60:-0.128803 61:0.10572 62:0.0663523 63:0.0168224 64:0.690656 65:0.0144674 66:-0.211977 67:-0.864324 68:-0.414838 69:-0.315266 70:-0.210526 71:-0.469301 72:-0.339188 73:0.112976 74:0.0480779 75:-0.517044 76:0.31073 77:0.192473 78:0.287542 79:-0.0741612 80:-0.55099 81:-0.743559 82:-0.387243 83:0.0660598 84:-0.483744 85:-0.186796 86:0.224909 87:0.288678 88:-0.202083 89:0.249624 90:-0.193715 91:0.544533 92:-0.469144 93:-0.0991053 94:0.609088 95:-0.0584565 96:-0.0661738 97:0.463914 98:-0.527886 99:0.604561 100:0.547088 101:-0.180333 102:0.00139782 103:0.0268213 104:0.0635935 105:0.0847837 106:0.171031 107:0.165705 108:0.369009 109:0.159188 110:-0.357188 111:0.306726 112:-0.241403 113:0.216667 114:-0.533617 115:-0.282406 116:-0.172242 117:-0.0535596 118:0.0265513 119:-0.50889 120:-0.0386536 121:-0.440033 122:0.545706 123:-0.0562992 124:-0.758769 125:0.153931 126:0.0336767 127:0.0156386 128:0.41577 
0 0 0.1127159919316783 0 0 0 0.4543854788210502 0 0 0 1 1:-0.630911 2:0.0282776 3:0.212039 4:-0.215331 5:-0.255161 6:0.106109 7:-0.349549 8:0.232516 9:0.336168 10:-0.563511 11:0.302592 12:0.524336 13:0.313288 14:-0.186678 15:-0.0471227 16:0.550154 17:-0.00944694 18:0.54209 19:0.108988 20:-0.289729 21:-0.563215 22:0.328923 23:-0.484007 24:-0.0154235 25:-0.367574 26:0.298425 27:-0.120772 28:-0.353812 29:0.33872 30:-0.112503 31:0.0583374 32:0.00436273 33:-0.355707 34:0.467595 35:-0.232738 36:-0.0858359 37:-0.127373 38:-0.302388 39:0.0849663 40:-0.384071 41:-0.317029 42:-0.447361 43:0.0683139 44:0.397732 45:0.156936 46:-0.257621 47:0.480919 48:-0.351973 49:-0.393256 50:0.0813315 51:0.624214 52:0.215064 53:-0.441719 54:-0.154874 55:0.038641 56:0.0375299 57:-0.199683 58:-0.472245 59:0.587549 60:-0.0133874 61:0.172433 62:-0.296733 63:-0.350852 64:0.521472 65:0.180095 66:0.0465669 67:-0.907914 68:-0.179317 69:-0.357188 70:-0.33791 71:-0.273306 72:-0.410396 73:-0.0233666 74:0.0304808 75:-0.463348 76:-0.532022 77:0.202066 78:0.259657 79:-0.00284759 80:-0.703082 81:-0.237826 82:-0.218373 83:-0.262419 84:-0.676978 85:0.189612 86:-0.159685 87:0.305996 88:-0.3306 89:0.345865 90:-0.201923 91:0.299421 92:0.0432636 93:-0.301904 94:0.248563 95:-0.15665 96:-0.105044 97:0.197545 98:-0.355527 99:0.628401 100:0.627031 101:0.129483 102:0.08974 103:0.0358826 104:-0.283984 105:0.000159668 106:0.167385 107:0.126377 108:0.638344 109:-0.0895752 110:-0.31199 111:0.0686141 112:-0.391099 113:0.259259 114:-0.362043 115:-0.21861 116:-0.199668 117:0.283227 118:0.245122 119:-0.119758 120:0.252451 121:-0.313721 122:0.446933 123:-0.00354331 124:-0.628308 125:-0.141807 126:-0.0832013 127:-0.26267 128:0.472902 
0 0 0 0 0 0 0 0 0 0.5485730953312432 0 1:-0.612463 2:0.01065 3:0.294456 4:-0.131412 5:-0.244375 6:0.218328 7:-0.300318 8:0.397919 9:0.121811 10:-0.499357 11:0.299003 12:0.838404 13:0.457595 14:-0.184496 15:-0.0375679 16:0.531225 17:-0.0489773 18:0.61261 19:0.308479 20:-0.406692 21:-0.567195 22:0.0406323 23:-0.0963547 24:0.196839 25:-0.123762 26:0.234551 27:0.0148034 28:-0.335271 29:0.332165 30:-0.147458 31:-0.170475 32:0.0303833 33:-0.494278 34:0.592576 35:-0.123058 36:0.411832 37:-0.15144 38:-0.376374 39:-0.321083 40:0.133323 41:-0.290349 42:-0.208016 43:0.14413 44:0.0710814 45:0.157289 46:-0.085667 47:0.0695762 48:-0.187325 49:-0.116624 50:-0.240332 51:0.317435 52:-0.11338 53:-0.322193 54:0.0252874 55:-0.0338557 56:0.325086 57:-0.41732 58:-0.498838 59:0.572714 60:0.107708 61:0.325155 62:-0.496351 63:0.0210005 64:0.283152 65:0.233225 66:-0.14507 67:-0.416701 68:-0.268387 69:-0.489096 70:-0.265955 71:-0.286567 72:0.00237361 73:-0.352314 74:-0.198701 75:0.397888 76:0.00655783 77:0.238962 78:0.110003 79:0.435682 80:-0.512904 81:-0.0996277 82:-0.167616 83:-0.0418726 84:-0.0335659 85:0.241865 86:-0.00506044 87:-0.0168273 88:-0.244627 89:-0.26792 90:-0.192308 91:0.131064 92:-0.129271 93:-0.306951 94:0.266356 95:0.11133 96:-0.136282 97:0.184152 98:-0.0600951 99:0.384556 100:-0.172969 101:0.108604 102:-0.0142578 103:0.378036 104:-0.348923 105:0.672361 106:-0.140537 107:0.340063 108:0.261438 109:-0.0909401 110:-0.190835 111:0.293478 112:-0.515509 113:0.00401235 114:-0.177191 115:-0.179602 116:-0.0509038 117:0.28499 118:0.217544 119:-0.506206 120:0.114851 121:-0.365974 122:0.0726994 123:-0.10748 124:-0.804308 125:0.111683 126:-0.0673534 127:-0.300898 128:0.380552 
-1 0 0.6873193966795692 0.6457250207223402 0 0 0 1 0 0 0 1:-0.907258 2:-0.259411 3:-0.586061 4:0.381675 5:-0.400691 6:0.111833 7:0.127882 8:-0.446447 9:-0.208305 10:-0.561949 11:-0.166899 12:0.581165 13:0.604277 14:0.0359017 15:-0.107405 16:0.0928515 17:0.251582 18:-0.0079879 19:0.170985 20:-0.641664 21:-0.125009 22:-0.308314 23:0.0380296 24:0.1311 25:0.593647 26:0.556001 27:0.253265 28:-0.449841 29:-0.316616 30:-0.0186472 31:0.150057 32:-0.394048 33:-0.00541293 34:0.298458 35:-0.120399 36:0.212176 37:0.209377 38:-0.0939365 39:-0.137003 40:0.216748 41:-0.441041 42:-0.507574 43:0.265189 44:0.359255 45:0.0902335 46:-0.0906273 47:-0.160025 48:0.00134617 49:0.305627 50:0.497145 51:0.00384347 52:-0.0140733 53:0.201515 54:-0.27152 55:0.216174 56:-0.0356586 57:-0.39629 58:-0.206137 59:-0.026751 60:0.553955 61:0.0999311 62:-0.193892 63:0.39901 64:0.462482 65:0.23098 66:0.357976 67:-0.30282 68:-0.0352211 69:0.0497565 70:0.0101704 71:-0.0545021 72:-0.598861 73:0.157441 74:-0.267204 75:-0.0579186 76:0.154458 77:-0.222974 78:0.218726 79:0.0402377 80:0.0378351 81:-0.104393 82:-0.115893 83:0.429649 84:0.475319 85:-0.35607 86:0.18555 87:0.0883843 88:0.121427 89:0.126817 90:0.0189962 91:0.398262 92:-0.0863973 93:0.0341822 94:0.0832193 95:0.248276 96:0.133659 97:0.272321 98:-0.0453956 99:0.160404 100:0.0202732 101:-0.630241 102:-0.35896 103:-0.0808264 104:-0.356662 105:0.0614721 106:0.251906 107:0.0296277 108:-0.365468 109:-0.259853 110:-0.42059 111:-0.0461957 112:-0.173635 113:-0.143519 114:0.0818723 115:-0.250711 116:0.0991066 117:-0.0963192 118:0.235147 119:-0.459242 120:-0.154799 121:0.216622 122:0.28865 123:0.333071 124:0.0633846 125:0.101396 126:0.143423 127:-0.0973067 128:0.161417 
-0 0.05412499118480349 0 0 0 0 0 0 0 0 0 1:-0.744605 2:-0.17848 3:-0.28617 4:0.268018 5:-0.0311789 6:0.000836013 7:-0.454049 8:-0.698184 9:-0.235042 10:-0.507445 11:-0.0237288 12:0.510728 13:0.183148 14:-0.364057 15:-0.0722258 16:0.237399 17:0.27818 18:-0.663563 19:0.059972 20:-0.538784 21:-0.156847 22:-0.266159 23:-0.276847 24:0.140455 25:0.124862 26:0.444147 27:0.15145 28:-0.507403 29:-0.391768 30:0.357738 31:-0.0492627 32:0.0867872 33:-0.265234 34:0.43721 35:-0.403407 36:0.236069 37:0.311169 38:-0.170751 39:-0.468737 40:0.143712 41:-0.621047 42:-0.59714 43:0.189259 44:0.479546 45:0.358103 46:-0.211326 47:0.105419 48:-0.221497 49:0.329038 50:0.380157 51:-0.114256 52:-0.188305 53:0.108166 54:0.0174542 55:0.245843 56:0.0599854 57:-0.331812 58:-0.516876 59:-0.0311284 60:0.426166 61:0.0230186 62:-0.302796 63:0.574711 64:0.531383 65:0.549763 66:0.603098 67:0.0666122 68:0.179959 69:-0.17256 70:-0.218408 71:0.0171065 72:-0.720152 73:0.0666969 74:-0.134807 75:-0.13997 76:-0.172597 77:0.0284098 78:0.467127 79:-0.00458091 80:-0.143824 81:-0.231571 82:0.399402 83:0.397919 84:0.0701593 85:-0.707447 86:-0.0863087 87:-0.372652 88:-0.0234877 89:0.193233 90:0.0304878 91:0.17958 92:-0.454073 93:0.0649231 94:0.23816 95:0.0899836 96:0.121736 97:0.0885417 98:0.479752 99:0.0422389 100:-0.106542 101:-0.587809 102:0.129997 103:0.385285 104:-0.147712 105:0.386237 106:0.178986 107:0.321447 108:-0.36329 109:-0.0267872 110:-0.419648 111:0.0417799 112:-0.447741 113:-0.257407 114:0.218043 115:0.265339 116:0.0787451 117:0.534494 118:0.0705589 119:-0.187521 120:0.350472 121:-0.247891 122:0.439264 123:0.41063 124:0.209026 125:0.269287 126:0.66046 127:-0.0521286 128:-0.114459 
-0.9624501972202735 1 1 1 1 1 1 1 1 1 1 1:-0.519513 2:-0.150523 3:-0.349482 4:0.220898 5:0.132468 6:0.0749196 7:-0.538871 8:-0.788397 9:-0.236727 10:-0.172518 11:0.0581256 12:0.439749 13:-0.225005 14:-0.244973 15:0.0599783 16:0.222485 17:0.713382 18:-0.856029 19:-0.0932032 20:-0.0835031 21:0.0297776 22:-0.409953 23:-0.338456 24:0.0958281 25:0.15099 26:0.585561 27:0.398352 28:-0.037775 29:-0.208384 30:0.273791 31:-0.49765 32:0.405111 33:-0.231983 34:0.252357 35:-0.226423 36:0.100728 37:0.400481 38:-0.0504241 39:-0.382714 40:-0.202896 41:-0.463603 42:-0.723586 43:0.279856 44:0.375253 45:0.418082 46:-0.111501 47:-0.369597 48:-0.376618 49:0.48518 50:0.378003 51:-0.102376 52:-0.43449 53:-0.0286467 54:0.0169434 55:0.493959 56:0.0468864 57:-0.200873 58:-0.394328 59:-0.200875 60:0.555578 61:0.295382 62:-0.55361 63:0.499505 64:0.198679 65:0.219506 66:0.423645 67:-0.0301049 68:0.0529922 69:-0.162609 70:-0.271803 71:-0.146267 72:-0.450748 73:0.0784936 74:-0.418456 75:0.487783 76:-0.360681 77:-0.00701021 78:0.738296 79:0.192027 80:-0.218241 81:-0.25659 82:0.179581 83:0.395579 84:-0.0111886 85:-0.0913642 86:-0.156311 87:-0.657899 88:0.307778 89:-0.00150376 90:-0.117495 91:-0.262129 92:-0.637781 93:-0.443909 94:0.426773 95:0.0410509 96:0.324192 97:0.240699 98:0.230437 99:0.00906971 100:-0.167505 101:-0.523152 102:0.223651 103:-0.0134107 104:-0.230148 105:0.393262 106:0.183295 107:0.491348 108:-0.455338 109:-0.711995 110:-0.659134 111:-0.0394022 112:-0.757249 113:-0.369753 114:-0.0502128 115:0.206014 116:-0.158529 117:0.210051 118:0.148599 119:-0.0969473 120:0.126688 121:-0.694713 122:0.334663 123:0.751181 124:0.145436 125:0.37252 126:0.523376 127:0.267304 128:-0.209157 
-1 1 0 0.632347975857674 0.8856552140259374 0 1 0.959678884241463 1 0.01506215500633794 0.4516571810936618 1:-0.703744 2:-0.194363 3:-0.125624 4:0.293003 5:-0.0783686 6:0.0144051 7:-0.414756 8:-0.423664 9:-0.318241 10:-0.779504 11:-0.154835 12:0.737581 13:0.382928 14:-0.171092 15:0.104365 16:0.277121 17:0.302119 18:-0.354351 19:0.325614 20:-0.349898 21:0.00319807 22:-0.184895 23:0.0233169 24:0.0476612 25:0.0539054 26:0.69281 27:0.0874138 28:-0.246437 29:-0.30503 30:0.23168 31:-0.199643 32:0.140386 33:-0.18837 34:0.139051 35:-0.27312 36:0.140332 37:-0.0257599 38:-0.320138 39:-0.729246 40:-0.0401385 41:-0.311924 42:-0.165114 43:0.00220003 44:0.381733 45:0.405343 46:-0.285109 47:-0.294118 48:-0.0264057 49:0.411942 50:0.0410428 51:-0.109189 52:-0.384539 53:0.000987817 54:0.173606 55:0.475775 56:0.1286 57:-0.317726 58:-0.207438 59:0.163181 60:0.373428 61:-0.0180565 62:-0.19277 63:0.360308 64:0.233837 65:0.216014 66:0.298916 67:0.182128 68:-0.120865 69:-0.150752 70:-0.609713 71:-0.269328 72:-0.697603 73:-0.128857 74:-0.630879 75:-0.704072 76:-0.0286033 77:0.130488 78:0.742645 79:-0.133589 80:0.0130293 81:-0.214296 82:0.179002 83:0.395319 84:-0.139924 85:-0.18617 86:0.095305 87:-0.509231 88:0.0853091 89:0.045614 90:0.187852 91:0.170891 92:-0.136547 93:-0.239963 94:-0.0287435 95:0.170772 96:-0.00345773 97:0.459077 98:0.312869 99:0.0505312 100:-0.449605 101:-0.0449571 102:0.253564 103:0.519029 104:-0.135935 105:0.640428 106:0.223401 107:0.271106 108:-0.363562 109:-0.291247 110:-0.52103 111:0.0275136 112:-0.343223 113:0.0574074 114:-0.282383 115:0.154815 116:-0.798878 117:0.490853 118:0.0453279 119:-0.467628 120:0.167376 121:-0.565933 122:-0.16319 123:0.385827 124:0.0412308 125:0.135195 126:0.318542 127:-0.111208 128:-0.367247 
-0 0 0 0 0 0 0.2194626943388326 0 0 0 0 1:-0.691139 2:-0.277681 3:-0.87401 4:0.222935 5:-0.289627 6:-0.0259164 7:-0.054686 8:-0.410545 9:0.101969 10:-0.469301 11:-0.333998 12:0.604979 13:0.385853 14:-0.838832 15:-0.037481 16:0.206711 17:0.257636 18:-0.393581 19:0.048341 20:-0.670643 21:0.202757 22:-0.268267 23:0.176749 24:0.335777 25:0.847772 26:0.818627 27:-0.259026 28:-0.33956 29:-0.380183 30:0.552604 31:0.0876681 32:-0.332347 33:-0.136251 34:0.211196 35:-0.303698 36:0.408886 37:0.105624 38:-0.238611 39:-0.186438 40:0.197859 41:-0.523551 42:-0.370025 43:0.243752 44:0.513366 45:-0.0753715 46:-0.131342 47:0.277672 48:-0.280315 49:0.499356 50:0.239901 51:-0.118449 52:0.271754 53:-0.193612 54:-0.157258 55:0.488934 56:0.0803618 57:-0.210793 58:-0.349326 59:-0.00535019 60:0.63428 61:0.135768 62:-0.549792 63:0.490929 64:0.0601699 65:0.521826 66:0.666288 67:-0.00585751 68:-0.234986 69:0.353589 70:-0.342487 71:-0.290545 72:-0.540707 73:-0.0161071 74:-0.0922803 75:-0.0262443 76:-0.144691 77:-0.433526 78:0.291379 79:-0.012257 80:0.252568 81:-0.185704 82:-0.0491171 83:0.563849 84:0.297881 85:-0.493116 86:-0.384594 87:0.213854 88:0.165522 89:0.572932 90:0.428002 91:0.37328 92:-0.086917 93:-0.220005 94:0.0284698 95:-0.15665 96:-0.100274 97:-0.239955 98:0.11774 99:0.233221 100:-0.203451 101:-0.560869 102:0.113223 103:0.0714027 104:-0.302153 105:0.116398 106:0.231687 107:0.0652858 108:-0.5561 109:-0.204914 110:-0.154426 111:-0.262228 112:-0.0128119 113:0.212963 114:0.0954894 115:-0.0832995 116:-0.450239 117:0.100727 118:0.178524 119:-0.508219 120:-0.0434622 121:0.289447 122:0.0690184 123:0.154331 124:0.254154 125:0.0249816 126:-0.149366 127:-0.0104257 128:0.497163 
-0 1 0 0 0.604362533328346 0 0 0.3666683051529088 0 1 0 1:-0.730248 2:-0.272356 3:-0.606531 4:0.286417 5:-0.173422 6:0.118585 7:-0.0477366 8:-0.500617 9:-0.225695 10:-0.617739 11:-0.2 12:0.556037 13:0.447724 14:-0.226996 15:-0.0278393 16:-0.0820965 17:0.236816 18:-0.268422 19:-0.136508 20:-0.447425 21:0.287186 22:-0.33548 23:-0.00374384 24:0.186346 25:0.483911 26:0.486482 27:0.14301 28:-0.507126 29:-0.339482 30:0.117732 31:0.217469 32:-0.138205 33:-0.229044 34:0.327945 35:-0.113918 36:0.484494 37:0.163205 38:-0.32595 39:-0.491829 40:0.130332 41:-0.556489 42:-0.519052 43:-0.0182208 44:0.431551 45:0.26557 46:-0.0771933 47:-0.0862323 48:-0.32567 49:0.513316 50:0.440483 51:0.0466457 52:0.010109 53:-0.0956536 54:-0.185185 55:0.141524 56:0.149808 57:-0.331217 58:-0.074291 59:-0.143969 60:0.390467 61:0.14459 62:-0.226227 63:0.28994 64:-0.321378 65:0.223248 66:0.497161 67:-0.142079 68:-0.0816829 69:-0.106712 70:-0.603102 71:-0.524731 72:-0.354142 73:0.1098 74:-0.544569 75:0.106486 76:0.0459048 77:-0.0839995 78:0.108212 79:0.140027 80:0.00776748 81:-0.213403 82:0.00646531 83:0.294668 84:0.363959 85:-0.615457 86:-0.0784369 87:-0.484725 88:0.287614 89:0.231078 90:0.305113 91:0.283852 92:-0.270365 93:0.0571232 94:-0.00875992 95:0.000328407 96:-0.0277811 97:0.078497 98:0.33708 99:0.00518269 100:-0.0654206 101:-0.703654 102:-0.00810735 103:0.00978615 104:-0.379879 105:-0.00590771 106:0.227047 107:0.158626 108:-0.670752 109:-0.387477 110:-0.578782 111:-0.261209 112:-0.427175 113:-0.268827 114:0.127489 115:0.229988 116:-0.552462 117:-0.0266696 118:0.36629 119:-0.197249 120:-0.18735 121:-0.30755 122:0.148466 123:0.440157 124:-0.0580513 125:0.0161646 126:0.128368 127:0.0318564 128:0.116807 
-0 0.1725584033215457 0.7889804771017648 0 0 0 0 0 0 0 0 1:-0.93347 2:-0.323127 3:-0.61428 4:0.431578 5:-0.567372 6:-0.223794 7:0.194389 8:-0.599436 9:0.257489 10:-0.274632 11:-0.321735 12:0.336065 13:0.702797 14:-0.108536 15:-0.282519 16:-0.18176 17:-0.0469596 18:-0.124451 19:-0.0664105 20:-0.781554 21:-0.260465 22:-0.327518 23:-0.0137274 24:0.0476612 25:0.733911 26:0.348336 27:0.29868 28:-0.442784 29:-0.313567 30:0.133145 31:0.601523 32:-0.57962 33:0.0061862 34:0.292022 35:0.119402 36:0.36961 37:0.270523 38:-0.187716 39:0.025124 40:0.36046 41:-0.440382 42:-0.365698 43:0.234952 44:0.289793 45:-0.0463553 46:0.0356515 47:-0.235927 48:-0.0514653 49:0.42268 50:0.260153 51:-0.130853 52:0.0231913 53:0.204478 54:-0.266922 55:0.235554 56:-0.32467 57:-0.48021 58:-0.051046 59:-0.213521 60:0.570385 61:0.363473 62:-0.164028 63:0.322045 64:0.564889 65:-0.158643 66:0.254311 67:-0.435499 68:-0.165186 69:0.325429 70:-0.425629 71:0.150511 72:-0.542844 73:0.0419691 74:0.135645 75:-0.219005 76:0.0690666 77:-0.0562046 78:0.198516 79:-0.0657422 80:0.136557 81:-0.0912882 82:0.0593457 83:0.455917 84:0.212321 85:-0.526909 86:-0.257239 87:-0.151446 88:-0.071571 89:0.116792 90:0.247655 91:-0.122013 92:-0.308042 93:0.226657 94:0.161511 95:0.0870279 96:-0.0413736 97:-0.441964 98:0.125811 99:0.2454 100:-0.00992092 101:-0.660549 102:-0.326531 103:0.305545 104:-0.288358 105:0.114163 106:0.367584 107:0.299161 108:-0.183551 109:0.417506 110:-0.140929 111:-0.0526495 112:-0.0647336 113:-0.0382716 114:0.500936 115:0.00934579 116:0.0675255 117:0.327309 118:0.0846413 119:-0.631332 120:0.178472 121:0.205102 122:-0.056135 123:0.0799213 124:-0.0367179 125:0.0209405 126:0.270206 127:-0.166232 128:0.449423 
-0 0.04814996345901711 1 0.5756596782065063 0.04441351127462725 0 0 0 0 0 0 1:-0.958972 2:-0.304903 3:-0.325746 4:0.301151 5:-0.48934 6:-0.332026 7:-0.0358511 8:-0.671169 9:0.238642 10:-0.261029 11:-0.293819 12:0.196583 13:0.464358 14:-0.248195 15:-0.242649 16:-0.0202911 17:0.126754 18:-0.240724 19:-0.0421102 20:-0.555892 21:-0.22223 22:-0.342857 23:-0.454187 24:0.0348925 25:0.378988 26:0.119727 27:0.243084 28:-0.520825 29:-0.255945 30:0.352646 31:0.737968 32:-0.353381 33:-0.177699 34:0.331238 35:-0.0171998 36:0.256526 37:0.0797754 38:-0.365379 39:-0.150663 40:0.432866 41:-0.444993 42:-0.494402 43:0.221752 44:0.350344 45:0.0983723 46:-0.0705797 47:-0.00253004 48:-0.070933 49:0.213918 50:0.182161 51:-0.283892 52:0.250347 53:0.205631 54:-0.388165 55:0.209236 56:-0.0502131 57:-0.40125 58:-0.167643 59:-0.0712549 60:0.66998 61:0.206892 62:-0.12406 63:0.619571 64:0.338839 65:0.230481 66:0.560558 67:-0.321618 68:-0.0133819 69:0.253652 70:-0.353166 71:0.105158 72:-0.39568 73:0.262704 74:-0.0644181 75:-0.171041 76:0.151388 77:-0.0903948 78:-0.0647224 79:-0.0612851 80:0.00801804 81:-0.512435 82:0.0935057 83:0.659558 84:0.10491 85:-0.710576 86:-0.339612 87:-0.0158471 88:0.0629293 89:0.0964912 90:0.0349437 91:-0.123461 92:-0.615694 93:0.26451 94:0.238708 95:-0.108374 96:0.231191 97:-0.344122 98:0.00244992 99:0.260689 100:-0.124946 101:-0.660886 102:-0.313112 103:0.194636 104:-0.0851279 105:0.00686572 106:0.46934 107:0.255899 108:-0.320261 109:0.456066 110:-0.149404 111:0.00849185 112:-0.0411328 113:-0.0145062 114:0.118638 115:0.225112 116:0.353002 117:-0.402248 118:0.0523691 119:-0.537068 120:0.161087 121:0.0738531 122:0.150307 123:-0.244882 124:-0.323487 125:-0.160544 126:0.0110935 127:0.176948 128:0.464684 
-1 1 0.2534980886817577 1 1 0.3449494791836836 0.8414483838705137 1 1 1 1 1:-0.706081 2:-0.216076 3:-0.0390155 4:0.338426 5:0.0319373 6:-0.121158 7:-0.48464 8:-0.466196 9:-0.189841 10:-0.654228 11:-0.0171486 12:0.714926 13:0.266862 14:-0.145529 15:0.0791748 16:0.229655 17:0.287077 18:-0.311055 19:0.0966301 20:-0.278208 21:-0.256911 22:-0.150234 23:0.0234483 24:0.183059 25:-0.0481298 26:0.525253 27:0.215353 28:-0.347585 29:-0.139787 30:0.437969 31:-0.0619024 32:-0.00950452 33:-0.243891 34:0.163898 35:-0.292065 36:0.343589 37:-0.0612354 38:-0.184731 39:-0.595252 40:0.161341 41:-0.192029 42:-0.0405494 43:0.0680882 44:0.490482 45:0.132696 46:-0.0166374 47:-0.124816 48:-0.143212 49:0.390249 50:0.113433 51:-0.1471 52:-0.295937 53:0.0561409 54:0.14619 55:0.277426 56:-0.0360744 57:-0.29015 58:-0.258205 59:0.0170233 60:0.381136 61:0.191454 62:-0.235208 63:0.397691 64:0.3563 65:0.49314 66:0.338771 67:0.351042 68:0.116155 69:-0.207072 70:-0.812103 71:-0.0720064 72:-0.633515 73:-0.184437 74:-0.422436 75:-0.646456 76:0.0294405 77:-0.0424302 78:0.457662 79:-0.0545995 80:-0.109496 81:-0.153239 82:0.218952 83:0.343303 84:-0.137554 85:-0.308511 86:-0.0978353 87:-0.312857 88:0.0877465 89:0.206266 90:0.111632 91:0.0745836 92:-0.117059 93:-0.178252 94:-0.151109 95:0.284729 96:0.0800048 97:0.186384 98:0.279147 99:0.127753 100:-0.39238 101:-0.464893 102:0.296338 103:0.424792 104:-0.215007 105:0.367076 106:0.481273 107:0.276088 108:-0.313181 109:-0.1957 110:-0.397677 111:0.211957 112:-0.321308 113:-0.066358 114:-0.0873191 115:-0.051605 116:-0.480573 117:0.579899 118:-0.0831744 119:-0.0986246 120:0.0922878 121:-0.255297 122:0.0776074 123:0.352362 124:-0.254974 125:0.0290228 126:0.00594295 127:0.0194034 128:-0.239679 
-1 0 0 0 0 0 0 0 0 1 0 1:-0.760508 2:-0.283144 3:-0.118606 4:0.257087 5:-0.0133985 6:-0.171897 7:-0.482626 8:-0.623982 9:-0.0845016 10:-0.549908 11:-0.0868395 12:0.51498 13:0.188997 14:-0.208708 15:0.0200217 16:0.200975 17:0.148124 18:-0.389706 19:-0.0147983 20:-0.239337 21:-0.32869 22:-0.233021 23:-0.47376 24:0.214412 25:0.283416 26:0.33467 27:0.281399 28:-0.656151 29:-0.162348 30:0.311085 31:0.258791 32:0.0685572 33:-0.557532 34:0.546026 35:-0.160283 36:0.277637 37:0.274445 38:-0.220704 39:-0.665013 40:0.280497 41:-0.5611 42:-0.429297 43:0.295199 44:0.442284 45:0.0150389 46:-0.23406 47:0.260805 48:-0.108833 49:0.14433 50:0.139071 51:-0.140112 52:-0.246779 53:-0.0312809 54:-0.142614 55:0.280057 56:0.0500052 57:0.00803492 58:-0.223803 59:-0.481518 60:0.391075 61:0.13246 62:-0.357584 63:0.678944 64:0.311704 65:0.642554 66:0.750542 67:-0.0401853 68:-0.101381 69:-0.05018 70:-0.50267 71:-0.488927 72:-0.503204 73:0.136797 74:-0.415523 75:-0.437406 76:-0.264964 77:0.208215 78:0.298542 79:0.206389 80:-0.625908 81:-0.469844 82:0.385892 83:0.402861 84:-0.145452 85:-0.937735 86:-0.243745 87:-0.531122 88:0.0713494 89:-0.155639 90:0.147983 91:0.0666184 92:-0.00298818 93:-0.266116 94:0.200657 95:-0.0538588 96:-0.0199118 97:0.239955 98:0.2754 99:0.181653 100:-0.11977 101:-0.912106 102:0.0964495 103:0.466473 104:-0.16319 105:0.0959604 106:-0.0258535 107:0.106974 108:-0.294935 109:-0.400444 110:-0.311048 111:0.0669158 112:-0.50472 113:-0.222222 114:0.0495319 115:0.171069 116:-0.348016 117:0.730659 118:0.190553 119:-0.392821 120:-0.108563 121:-0.243366 122:0.312883 123:0.236614 124:0.00389744 125:0.158707 126:-0.0253566 127:-0.013901 128:-0.135981 
-1 0.2332088814116543 0.4361326968398486 0.2044842087472345 1 0.2766241752930317 1 0.09609335448313935 0 0 1 1:-0.892233 2:-0.133355 3:-0.827367 4:0.280646 5:-0.346254 6:-0.000900322 7:0.0750796 8:-0.887709 9:0.116448 10:-0.259651 11:-0.0557328 12:0.256272 13:0.0206544 14:-0.475866 15:-0.322562 16:0.409049 17:0.450702 18:-0.443021 19:0.359676 20:-0.456736 21:0.369625 22:-0.136651 23:-0.565583 24:0.00657396 25:0.580583 26:0.413696 27:-0.147699 28:-0.304829 29:-0.525457 30:0.260579 31:0.388592 32:0.0127766 33:-0.734921 34:0.226313 35:0.0923141 36:0.345062 37:0.301364 38:-0.566447 39:-0.331653 40:0.426255 41:-0.101614 42:-0.611252 43:0.352739 44:0.206966 45:0.00424628 46:-0.0656195 47:0.0166561 48:-0.190639 49:0.376933 50:0.265539 51:-0.173305 52:-0.308424 53:0.0958182 54:-0.217539 55:0.321689 56:0.272066 57:-0.598056 58:-0.0806137 59:-0.223006 60:0.676673 61:0.0522398 62:-0.379814 63:0.635844 64:-0.259084 65:0.391868 66:0.500671 67:-0.612587 68:-0.468793 69:0.175312 70:-0.136283 71:0.266676 72:-0.496796 73:0.00884755 74:-0.193464 75:0.718552 76:-0.10953 77:-0.185586 78:-0.121003 79:0.468367 80:-0.313706 81:-0.642591 82:0.193284 83:0.161769 84:0.208635 85:-0.336671 86:-0.301378 87:0.0446006 88:-0.0979393 89:-0.225815 90:0.204034 91:0.769008 92:-0.31168 93:0.118146 94:0.429236 95:-0.0518883 96:0.247407 97:0.293155 98:-0.286929 99:-0.0121793 100:-0.436952 101:-0.218387 102:0.0956108 103:-0.069228 104:-0.287012 105:-0.277343 106:0.447796 107:0.0034085 108:0.170207 109:-0.107661 110:0.0957313 111:-0.640285 112:0.100135 113:-0.430864 114:0.126128 115:0.259244 116:-0.323083 117:0.288957 118:0.159748 119:-0.559544 120:0.517292 121:0.133512 122:0.301227 123:0.525591 124:0.0207179 125:-0.112785 126:0.206418 127:0.568781 128:-0.0682841 
-0 0 0 0 0 0 0 0 0 0 0.3464892949087646 1:-0.921616 2:-0.29641 3:-0.424784 4:0.41474 5:-0.674054 6:-0.0850804 7:0.177567 8:-0.689931 9:0.221711 10:-0.31682 11:-0.505184 12:0.32555 13:0.594864 14:-0.169429 15:-0.287383 16:-0.271385 17:0.0160506 18:-0.107624 19:0.0737837 20:-0.730695 21:-0.223367 22:-0.268033 23:-0.247159 24:0.19646 25:0.643014 26:0.333185 27:0.13457 28:-0.594161 29:-0.332774 30:0.146494 31:0.444498 32:-0.285136 33:-0.121868 34:0.337973 35:-0.0165351 36:0.192537 37:0.229521 38:-0.335847 39:-0.111635 40:0.331497 41:-0.276515 42:-0.51209 43:0.230778 44:0.0664237 45:0.106511 46:-0.112535 47:0.0617752 48:0.0152221 49:0.122208 50:0.425401 51:-0.0693571 52:0.0913776 53:0.112776 54:-0.279353 55:0.145592 56:-0.214263 57:-0.258407 58:-0.278289 59:0.10214 60:0.789858 61:-0.0296347 62:-0.154148 63:0.676745 64:0.289287 65:0.180095 66:0.515746 67:-0.503065 68:-0.083824 69:0.104806 70:-0.09433 71:-0.245989 72:-0.691194 73:0.108666 74:-0.284173 75:-0.386124 76:-0.0481373 77:-0.133686 78:-0.00230238 79:-0.0313235 80:0.0478577 81:-0.08414 82:-0.0361864 83:0.604681 84:0.087008 85:-0.57791 86:-0.299691 87:-0.0462343 88:0.0596056 89:0.0353383 90:0.113508 91:-0.338523 92:-0.0315707 93:0.186052 94:0.390638 95:0.0912972 96:-0.0256349 97:0.0398065 98:0.0514483 99:0.0746307 100:-0.088138 101:-0.652467 102:-0.332401 103:0.0782892 104:-0.446501 105:0.131087 106:0.309248 107:0.152596 108:-0.135621 109:0.195359 110:-0.17263 111:-0.14572 112:-0.364801 113:-0.20216 114:0.477787 115:0.00446973 116:-0.377519 117:-0.0372493 118:0.142145 119:-0.319356 120:0.000184945 121:0.0742646 122:0.0322086 123:0.265748 124:-0.235282 125:-0.00293902 126:-0.191363 127:0.209962 128:0.269028 
